{"learner":{"attributes":{"scikit_learn":"{\"_estimator_type\": \"classifier\"}"},"feature_names":["Primary Type","Description","Location Description","Arrest","IUCR","FBI Code","Beat","District","Ward","Community Area","X Coordinate","Y Coordinate","Latitude","Longitude","year","month","day","hour","dayofweek","is_weekend","is_night","month_sin","month_cos","lat_lon_sum","lat_lon_diff","district_risk","hour_risk"],"feature_types":["int","int","int","i","int","int","int","float","float","float","float","int","float","float","int","int","int","int","int","int","int","float","float","float","float","float","float"],"gradient_booster":{"model":{"cats":{"enc":[],"feature_segments":[],"sorted_idx":[]},"gbtree_model_param":{"num_parallel_tree":"1","num_trees":"668"},"iteration_indptr":[0,1,2,3,4,5,6,7,8,9,10,11,12,13,14,15,16,17,18,19,20,21,22,23,24,25,26,27,28,29,30,31,32,33,34,35,36,37,38,39,40,41,42,43,44,45,46,47,48,49,50,51,52,53,54,55,56,57,58,59,60,61,62,63,64,65,66,67,68,69,70,71,72,73,74,75,76,77,78,79,80,81,82,83,84,85,86,87,88,89,90,91,92,93,94,95,96,97,98,99,100,101,102,103,104,105,106,107,108,109,110,111,112,113,114,115,116,117,118,119,120,121,122,123,124,125,126,127,128,129,130,131,132,133,134,135,136,137,138,139,140,141,142,143,144,145,146,147,148,149,150,151,152,153,154,155,156,157,158,159,160,161,162,163,164,165,166,167,168,169,170,171,172,173,174,175,176,177,178,179,180,181,182,183,184,185,186,187,188,189,190,191,192,193,194,195,196,197,198,199,200,201,202,203,204,205,206,207,208,209,210,211,212,213,214,215,216,217,218,219,220,221,222,223,224,225,226,227,228,229,230,231,232,233,234,235,236,237,238,239,240,241,242,243,244,245,246,247,248,249,250,251,252,253,254,255,256,257,258,259,260,261,262,263,264,265,266,267,268,269,270,271,272,273,274,275,276,277,278,279,280,281,282,283,284,285,286,287,288,289,290,291,292,293,294,295,296,297,298,299,300,301,302,303,304,305,306,307,308,309,310,311,312,313,314,315,316,317,318,319,320,321,322,323,324,325,326,327,328,329,330,331,332,333,334,335,336,337,338,339,340,341,342,343,344,345,346,347,348,349,350,351,352,353,354,355,356,357,358,359,360,361,362,363,364,365,366,367,368,369,370,371,372,373,374,375,376,377,378,379,380,381,382,383,384,385,386,387,388,389,390,391,392,393,394,395,396,397,398,399,400,401,402,403,404,405,406,407,408,409,410,411,412,413,414,415,416,417,418,419,420,421,422,423,424,425,426,427,428,429,430,431,432,433,434,435,436,437,438,439,440,441,442,443,444,445,446,447,448,449,450,451,452,453,454,455,456,457,458,459,460,461,462,463,464,465,466,467,468,469,470,471,472,473,474,475,476,477,478,479,480,481,482,483,484,485,486,487,488,489,490,491,492,493,494,495,496,497,498,499,500,501,502,503,504,505,506,507,508,509,510,511,512,513,514,515,516,517,518,519,520,521,522,523,524,525,526,527,528,529,530,531,532,533,534,535,536,537,538,539,540,541,542,543,544,545,546,547,548,549,550,551,552,553,554,555,556,557,558,559,560,561,562,563,564,565,566,567,568,569,570,571,572,573,574,575,576,577,578,579,580,581,582,583,584,585,586,587,588,589,590,591,592,593,594,595,596,597,598,599,600,601,602,603,604,605,606,607,608,609,610,611,612,613,614,615,616,617,618,619,620,621,622,623,624,625,626,627,628,629,630,631,632,633,634,635,636,637,638,639,640,641,642,643,644,645,646,647,648,649,650,651,652,653,654,655,656,657,658,659,660,661,662,663,664,665,666,667,668],"tree_info":[0,0,0,0,0,0,0,0,0,0,0,0,0,0,0,0,0,0,0,0,0,0,0,0,0,0,0,0,0,0,0,0,0,0,0,0,0,0,0,0,0,0,0,0,0,0,0,0,0,0,0,0,0,0,0,0,0,0,0,0,0,0,0,0,0,0,0,0,0,0,0,0,0,0,0,0,0,0,0,0,0,0,0,0,0,0,0,0,0,0,0,0,0,0,0,0,0,0,0,0,0,0,0,0,0,0,0,0,0,0,0,0,0,0,0,0,0,0,0,0,0,0,0,0,0,0,0,0,0,0,0,0,0,0,0,0,0,0,0,0,0,0,0,0,0,0,0,0,0,0,0,0,0,0,0,0,0,0,0,0,0,0,0,0,0,0,0,0,0,0,0,0,0,0,0,0,0,0,0,0,0,0,0,0,0,0,0,0,0,0,0,0,0,0,0,0,0,0,0,0,0,0,0,0,0,0,0,0,0,0,0,0,0,0,0,0,0,0,0,0,0,0,0,0,0,0,0,0,0,0,0,0,0,0,0,0,0,0,0,0,0,0,0,0,0,0,0,0,0,0,0,0,0,0,0,0,0,0,0,0,0,0,0,0,0,0,0,0,0,0,0,0,0,0,0,0,0,0,0,0,0,0,0,0,0,0,0,0,0,0,0,0,0,0,0,0,0,0,0,0,0,0,0,0,0,0,0,0,0,0,0,0,0,0,0,0,0,0,0,0,0,0,0,0,0,0,0,0,0,0,0,0,0,0,0,0,0,0,0,0,0,0,0,0,0,0,0,0,0,0,0,0,0,0,0,0,0,0,0,0,0,0,0,0,0,0,0,0,0,0,0,0,0,0,0,0,0,0,0,0,0,0,0,0,0,0,0,0,0,0,0,0,0,0,0,0,0,0,0,0,0,0,0,0,0,0,0,0,0,0,0,0,0,0,0,0,0,0,0,0,0,0,0,0,0,0,0,0,0,0,0,0,0,0,0,0,0,0,0,0,0,0,0,0,0,0,0,0,0,0,0,0,0,0,0,0,0,0,0,0,0,0,0,0,0,0,0,0,0,0,0,0,0,0,0,0,0,0,0,0,0,0,0,0,0,0,0,0,0,0,0,0,0,0,0,0,0,0,0,0,0,0,0,0,0,0,0,0,0,0,0,0,0,0,0,0,0,0,0,0,0,0,0,0,0,0,0,0,0,0,0,0,0,0,0,0,0,0,0,0,0,0,0,0,0,0,0,0,0,0,0,0,0,0,0,0,0,0,0,0,0,0,0,0,0,0,0,0,0,0,0,0,0,0,0,0,0,0,0,0,0,0,0,0,0,0,0,0,0,0,0,0,0,0,0,0,0,0,0,0,0,0,0,0,0,0,0,0,0,0,0,0,0,0,0,0,0,0,0,0,0,0,0,0,0,0,0,0,0,0,0,0,0,0,0,0,0,0,0,0,0,0,0,0,0,0,0,0,0,0,0,0,0,0,0,0,0,0,0,0,0,0,0,0,0,0,0,0],"trees":[{"base_weights":[-1.4332507E-3,1.7249262E-1,-5.728663E-1,2.4140806E-1,-2.3305032E-1,-9.9951774E-1,-4.1879743E-1,1.4024056E-2,5.578239E-2,-2.1766946E-2,2.2456603E-2,1.0281496E-1,-7.431376E-2,-3.8293555E-2,7.988162E-3],"categories":[],"categories_nodes":[],"categories_segments":[],"categories_sizes":[],"default_left":[0,0,0,0,0,0,0,0,0,0,0,0,0,0,0],"id":0,"left_children":[1,3,5,7,9,11,13,-1,-1,-1,-1,-1,-1,-1,-1],"loss_changes":[3.4776895E3,7.498031E2,5.363013E2,5.911604E2,1.3711897E2,9.6288086E1,3.3483008E2,0E0,0E0,0E0,0E0,0E0,0E0,0E0,0E0],"parents":[2147483647,0,0,1,1,2,2,3,3,4,4,5,5,6,6],"right_children":[2,4,6,8,10,12,14,-1,-1,-1,-1,-1,-1,-1,-1],"split_conditions":[1.6E1,1.1E1,1.821E3,1.5E1,1.511E3,-4.5928013E1,2.531E3,1.4024056E-2,5.578239E-2,-2.1766946E-2,2.2456603E-2,1.0281496E-1,-7.431376E-2,-3.8293555E-2,7.988162E-3],"split_indices":[7,15,6,7,6,23,6,0,0,0,0,0,0,0,0],"split_type":[0,0,0,0,0,0,0,0,0,0,0,0,0,0,0],"sum_hessian":[3.49894E4,2.6825328E4,8.16407E3,2.2929273E4,3.8960535E3,2.1645254E3,5.9995444E3,2.0951766E4,1.9775073E3,3.4780269E3,4.1802655E2,1.56616E1,2.1488638E3,4.9997354E3,9.998089E2],"tree_param":{"num_deleted":"0","num_feature":"27","num_nodes":"15","size_leaf_vector":"1"}},{"base_weights":[3.2293706E-4,1.3446453E-1,-6.305422E-1,5.0081515E-1,-7.691026E-4,-7.202616E-1,2.9502654E-1,2.805101E-2,8.210096E-2,-8.792836E-3,2.8981857E-2,-7.695168E-2,-3.922498E-2,-1.6338045E-3,4.3956637E-2],"categories":[],"categories_nodes":[],"categories_segments":[],"categories_sizes":[],"default_left":[1,0,0,0,1,0,0,0,0,0,0,0,0,0,0],"id":1,"left_children":[1,3,5,7,9,11,13,-1,-1,-1,-1,-1,-1,-1,-1],"loss_changes":[2.9567021E3,1.427449E3,5.08958E2,5.646548E2,1.0013761E3,3.4054175E2,5.282733E1,0E0,0E0,0E0,0E0,0E0,0E0,0E0,0E0],"parents":[2147483647,0,0,1,1,2,2,3,3,4,4,5,5,6,6],"right_children":[2,4,6,8,10,12,14,-1,-1,-1,-1,-1,-1,-1,-1],"split_conditions":[4.1913036E1,2.2E1,-4.5667213E1,1.8E1,1.2957773E2,1.9E1,3E0,2.805101E-2,8.210096E-2,-8.792836E-3,2.8981857E-2,-7.695168E-2,-3.922498E-2,-1.6338045E-3,4.3956637E-2],"split_indices":[12,2,23,2,24,9,9,0,0,0,0,0,0,0,0],"split_type":[0,0,0,0,0,0,0,0,0,0,0,0,0,0,0],"sum_hessian":[3.493676E4,2.8811357E4,6.125406E3,7.7671875E3,2.104417E4,5.584316E3,5.410898E2,6.5443726E3,1.2228152E3,1.6177529E4,4.86664E3,1.9771755E3,3.6071404E3,2.6647217E2,2.746176E2],"tree_param":{"num_deleted":"0","num_feature":"27","num_nodes":"15","size_leaf_vector":"1"}},{"base_weights":[-1.828343E-4,-5.515507E-1,3.3895278E-1,-8.2354045E-1,-3.0501798E-1,1.9367819E-1,5.8230126E-1,-6.977807E-2,-4.7919113E-2,-6.5954424E-2,-1.7554501E-2,3.8804524E-2,4.9789133E-3,4.8866328E-2,2.6745323E-2],"categories":[],"categories_nodes":[],"categories_segments":[],"categories_sizes":[],"default_left":[0,0,0,0,0,0,0,0,0,0,0,0,0,0,0],"id":2,"left_children":[1,3,5,7,9,11,13,-1,-1,-1,-1,-1,-1,-1,-1],"loss_changes":[6.537443E3,8.925569E2,7.651616E2,1.3921729E2,2.697989E2,5.745447E2,1.5168066E2,0E0,0E0,0E0,0E0,0E0,0E0,0E0,0E0],"parents":[2147483647,0,0,1,1,2,2,3,3,4,4,5,5,6,6],"right_children":[2,4,6,8,10,12,14,-1,-1,-1,-1,-1,-1,-1,-1],"split_conditions":[6.231067E-1,5.045962E-1,7.428449E-1,1.158887E6,4.1734867E1,2.2E1,4.4E1,-6.977807E-2,-4.7919113E-2,-6.5954424E-2,-1.7554501E-2,3.8804524E-2,4.9789133E-3,4.8866328E-2,2.6745323E-2],"split_indices":[25,25,25,10,12,2,9,0,0,0,0,0,0,0,0],"split_type":[0,0,0,0,0,0,0,0,0,0,0,0,0,0,0],"sum_hessian":[3.495974E4,1.3313683E4,2.1646059E4,6.3289087E3,6.9847734E3,1.35554795E4,8.0905786E3,3.534367E3,2.7945417E3,6.7961456E2,6.3051587E3,3.6713828E3,9.884097E3,5.767929E3,2.3226492E3],"tree_param":{"num_deleted":"0","num_feature":"27","num_nodes":"15","size_leaf_vector":"1"}},{"base_weights":[-5.0111214E-4,-4.3669078E-1,3.7199545E-1,-7.513181E-1,-2.2665513E-1,2.7731344E-1,6.361783E-1,-9.689827E-2,-4.9605593E-2,-8.423675E-3,-3.753984E-2,2.4836155E-2,-7.519097E-3,7.23302E-2,4.2185944E-2],"categories":[],"categories_nodes":[],"categories_segments":[],"categories_sizes":[],"default_left":[0,0,0,0,0,0,0,0,0,0,0,0,0,0,0],"id":3,"left_children":[1,3,5,7,9,11,13,-1,-1,-1,-1,-1,-1,-1,-1],"loss_changes":[5.6713154E3,1.0623025E3,4.7075073E2,2.6578857E2,3.084286E2,3.3114124E2,1.02299194E2,0E0,0E0,0E0,0E0,0E0,0E0,0E0,0E0],"parents":[2147483647,0,0,1,1,2,2,3,3,4,4,5,5,6,6],"right_children":[2,4,6,8,10,12,14,-1,-1,-1,-1,-1,-1,-1,-1],"split_conditions":[6.9010186E-1,5.045962E-1,8.013577E-1,1.5E1,3E1,1.1E1,3.14E2,-9.689827E-2,-4.9605593E-2,-8.423675E-3,-3.753984E-2,2.4836155E-2,-7.519097E-3,7.23302E-2,4.2185944E-2],"split_indices":[25,25,25,8,8,15,6,0,0,0,0,0,0,0,0],"split_type":[0,0,0,0,0,0,0,0,0,0,0,0,0,0,0],"sum_hessian":[3.4902883E4,1.6076865E4,1.8826018E4,6.434938E3,9.641927E3,1.3860518E4,4.9655E3,7.1322644E2,5.7217114E3,6.9517217E3,2.6902053E3,1.1895775E4,1.9647422E3,7.0080096E2,4.2646987E3],"tree_param":{"num_deleted":"0","num_feature":"27","num_nodes":"15","size_leaf_vector":"1"}},{"base_weights":[1.3931346E-4,1.0799838E-1,-5.172663E-1,4.2723373E-1,-6.7770444E-3,-6.107709E-1,2.0679891E-1,2.2887299E-2,7.6604106E-2,-2.969735E-2,5.545981E-3,-6.2926576E-2,-3.3586882E-2,-5.370787E-3,3.3421777E-2],"categories":[],"categories_nodes":[],"categories_segments":[],"categories_sizes":[],"default_left":[0,0,0,0,0,0,0,0,0,0,0,0,0,0,0],"id":4,"left_children":[1,3,5,7,9,11,13,-1,-1,-1,-1,-1,-1,-1,-1],"loss_changes":[1.9446777E3,1.0565453E3,4.0709717E2,5.39291E2,7.017868E2,2.0111963E2,4.8444668E1,0E0,0E0,0E0,0E0,0E0,0E0,0E0,0E0],"parents":[2147483647,0,0,1,1,2,2,3,3,4,4,5,5,6,6],"right_children":[2,4,6,8,10,12,14,-1,-1,-1,-1,-1,-1,-1,-1],"split_conditions":[4.6592E4,2.2E1,-4.5672836E1,1.8E1,-4.5920837E1,1.9E1,3E0,2.2887299E-2,7.6604106E-2,-2.969735E-2,5.545981E-3,-6.2926576E-2,-3.3586882E-2,-5.370787E-3,3.3421777E-2],"split_indices":[11,2,23,2,23,9,9,0,0,0,0,0,0,0,0],"split_type":[0,0,0,0,0,0,0,0,0,0,0,0,0,0,0],"sum_hessian":[3.484456E4,2.8834475E4,6.010082E3,7.6246416E3,2.1209832E4,5.322854E3,6.8722833E2,6.44645E3,1.1781915E3,3.6347769E3,1.7575057E4,1.9960247E3,3.3268293E3,3.2490286E2,3.6232547E2],"tree_param":{"num_deleted":"0","num_feature":"27","num_nodes":"15","size_leaf_vector":"1"}},{"base_weights":[2.015101E-3,-3.8641962E-1,3.4016535E-1,-6.5698296E-1,-2.0366709E-1,2.5110623E-1,5.922615E-1,-8.577117E-2,-4.3185964E-2,5.2215406E-3,-2.3297148E-2,2.1173604E-2,-1.8406363E-2,6.7761324E-2,3.9250422E-2],"categories":[],"categories_nodes":[],"categories_segments":[],"categories_sizes":[],"default_left":[0,0,0,0,0,0,0,0,0,0,0,0,0,0,0],"id":5,"left_children":[1,3,5,7,9,11,13,-1,-1,-1,-1,-1,-1,-1,-1],"loss_changes":[4.574794E3,8.013589E2,4.178933E2,2.2105542E2,3.0724255E2,2.691579E2,8.880591E1,0E0,0E0,0E0,0E0,0E0,0E0,0E0,0E0],"parents":[2147483647,0,0,1,1,2,2,3,3,4,4,5,5,6,6],"right_children":[2,4,6,8,10,12,14,-1,-1,-1,-1,-1,-1,-1,-1],"split_conditions":[6.9010186E-1,5.045962E-1,8.013577E-1,1.5E1,2.2E1,1E0,3.14E2,-8.577117E-2,-4.3185964E-2,5.2215406E-3,-2.3297148E-2,2.1173604E-2,-1.8406363E-2,6.7761324E-2,3.9250422E-2],"split_indices":[25,25,25,8,2,22,6,0,0,0,0,0,0,0,0],"split_type":[0,0,0,0,0,0,0,0,0,0,0,0,0,0,0],"sum_hessian":[3.4827227E4,1.6208409E4,1.8618816E4,6.5333115E3,9.675098E3,1.3759821E4,4.8589956E3,7.32543E2,5.8007686E3,2.8584287E3,6.816669E3,1.2773696E4,9.861257E2,6.789186E2,4.1800767E3],"tree_param":{"num_deleted":"0","num_feature":"27","num_nodes":"15","size_leaf_vector":"1"}},{"base_weights":[-8.2630396E-4,-3.6002415E-1,3.1624863E-1,-6.0742116E-1,-1.9224334E-1,2.3189606E-1,5.5758405E-1,-7.870729E-2,-3.9969187E-2,4.1931393E-3,-2.1627206E-2,2.1224473E-2,-8.654412E-3,6.511942E-2,3.678844E-2],"categories":[],"categories_nodes":[],"categories_segments":[],"categories_sizes":[],"default_left":[0,0,0,0,0,0,0,0,0,0,0,0,0,0,0],"id":6,"left_children":[1,3,5,7,9,11,13,-1,-1,-1,-1,-1,-1,-1,-1],"loss_changes":[3.9616082E3,6.7682666E2,3.75974E2,1.8559229E2,2.5223312E2,2.819972E2,8.553418E1,0E0,0E0,0E0,0E0,0E0,0E0,0E0,0E0],"parents":[2147483647,0,0,1,1,2,2,3,3,4,4,5,5,6,6],"right_children":[2,4,6,8,10,12,14,-1,-1,-1,-1,-1,-1,-1,-1],"split_conditions":[6.9010186E-1,5.045962E-1,8.013577E-1,1.5E1,2.2E1,1.1E1,3.14E2,-7.870729E-2,-3.9969187E-2,4.1931393E-3,-2.1627206E-2,2.1224473E-2,-8.654412E-3,6.511942E-2,3.678844E-2],"split_indices":[25,25,25,8,2,15,6,0,0,0,0,0,0,0,0],"split_type":[0,0,0,0,0,0,0,0,0,0,0,0,0,0,0],"sum_hessian":[3.4781707E4,1.6307567E4,1.8474139E4,6.5891226E3,9.718445E3,1.3690825E4,4.783314E3,7.4394135E2,5.845181E3,2.8567253E3,6.8617197E3,1.1724645E4,1.9661808E3,6.6079584E2,4.122518E3],"tree_param":{"num_deleted":"0","num_feature":"27","num_nodes":"15","size_leaf_vector":"1"}},{"base_weights":[8.365857E-4,1.0951337E-1,-4.4527242E-1,2.0704092E-1,-3.0905935E-1,-3.19135E-1,-1.7833318E0,3.808801E-2,7.409521E-3,-4.543493E-3,-3.3963773E-2,-5.9985794E-2,-1.2197733E-2,-1.0958454E-1,-1.5894747E-1],"categories":[],"categories_nodes":[],"categories_segments":[],"categories_sizes":[],"default_left":[0,0,0,0,0,0,0,0,0,0,0,0,0,0,0],"id":7,"left_children":[1,3,5,7,9,11,13,-1,-1,-1,-1,-1,-1,-1,-1],"loss_changes":[1.682772E3,1.1394248E3,1.1469983E3,7.5167444E2,2.0316574E2,4.746869E2,6.1830444E1,0E0,0E0,0E0,0E0,0E0,0E0,0E0,0E0],"parents":[2147483647,0,0,1,1,2,2,3,3,4,4,5,5,6,6],"right_children":[2,4,6,8,10,12,14,-1,-1,-1,-1,-1,-1,-1,-1],"split_conditions":[2.004E3,4.5776E4,1.2E1,2.2E1,2.002E3,4E0,1.9E1,3.808801E-2,7.409521E-3,-4.543493E-3,-3.3963773E-2,-5.9985794E-2,-1.2197733E-2,-1.0958454E-1,-1.5894747E-1],"split_indices":[14,11,15,2,14,15,16,0,0,0,0,0,0,0,0],"split_type":[0,0,0,0,0,0,0,0,0,0,0,0,0,0,0],"sum_hessian":[3.4707426E4,2.7909207E4,6.7982183E3,2.263561E4,5.273597E3,6.213698E3,5.8452E2,5.686747E3,1.6948863E4,2.0433008E3,3.2302964E3,1.4430026E3,4.770696E3,3.429753E2,2.4154474E2],"tree_param":{"num_deleted":"0","num_feature":"27","num_nodes":"15","size_leaf_vector":"1"}},{"base_weights":[-1.1214829E-3,-3.2586077E-1,2.898147E-1,-2.4313534E-2,-4.518496E-1,3.928816E-1,-1.4561093E-1,-2.0181464E-2,1.3148066E-2,-4.4132143E-2,-1.8605597E-2,2.0845795E-2,3.9788283E-2,2.2854386E-2,-4.606555E-2],"categories":[],"categories_nodes":[],"categories_segments":[],"categories_sizes":[],"default_left":[0,0,0,0,0,0,0,0,0,0,0,0,0,0,0],"id":8,"left_children":[1,3,5,7,9,11,13,-1,-1,-1,-1,-1,-1,-1,-1],"loss_changes":[3.275263E3,6.2235645E2,8.206544E2,2.4879529E2,3.471211E2,2.412395E2,7.791679E2,0E0,0E0,0E0,0E0,0E0,0E0,0E0,0E0],"parents":[2147483647,0,0,1,1,2,2,3,3,4,4,5,5,6,6],"right_children":[2,4,6,8,10,12,14,-1,-1,-1,-1,-1,-1,-1,-1],"split_conditions":[6.9010186E-1,2.002E3,2.004E3,6.123234E-17,5.6321186E-1,7.428449E-1,6.123234E-17,-2.0181464E-2,1.3148066E-2,-4.4132143E-2,-1.8605597E-2,2.0845795E-2,3.9788283E-2,2.2854386E-2,-4.606555E-2],"split_indices":[25,14,14,22,25,25,22,0,0,0,0,0,0,0,0],"split_type":[0,0,0,0,0,0,0,0,0,0,0,0,0,0,0],"sum_hessian":[3.4664793E4,1.638072E4,1.8284072E4,4.827518E3,1.1553201E4,1.4784599E4,3.4994731E3,2.161386E3,2.6661323E3,6.5110815E3,5.04212E3,8.665142E3,6.119457E3,1.7993243E3,1.7001488E3],"tree_param":{"num_deleted":"0","num_feature":"27","num_nodes":"15","size_leaf_vector":"1"}},{"base_weights":[3.3364715E-3,-2.9601377E-1,2.7488366E-1,-1.0702929E-2,-4.1466495E-1,3.700117E-1,-1.22019865E-1,3.411455E-2,-1.9934183E-2,-8.788258E-3,-3.8293466E-2,4.3231428E-2,2.1081178E-2,2.2321193E-2,-4.133545E-2],"categories":[],"categories_nodes":[],"categories_segments":[],"categories_sizes":[],"default_left":[0,0,0,0,0,0,0,0,0,0,0,0,0,0,0],"id":9,"left_children":[1,3,5,7,9,11,13,-1,-1,-1,-1,-1,-1,-1,-1],"loss_changes":[2.8095728E3,5.565314E2,6.843197E2,6.0552826E2,3.750094E2,2.6376318E2,6.658001E2,0E0,0E0,0E0,0E0,0E0,0E0,0E0,0E0],"parents":[2147483647,0,0,1,1,2,2,3,3,4,4,5,5,6,6],"right_children":[2,4,6,8,10,12,14,-1,-1,-1,-1,-1,-1,-1,-1],"split_conditions":[6.9010186E-1,2.002E3,2.004E3,4E0,2.2E1,2.2E1,6.123234E-17,3.411455E-2,-1.9934183E-2,-8.788258E-3,-3.8293466E-2,4.3231428E-2,2.1081178E-2,2.2321193E-2,-4.133545E-2],"split_indices":[25,14,14,15,2,2,22,0,0,0,0,0,0,0,0],"split_type":[0,0,0,0,0,0,0,0,0,0,0,0,0,0,0],"sum_hessian":[3.4561312E4,1.6439035E4,1.812228E4,4.8287705E3,1.1610264E4,1.4618621E4,3.5036572E3,1.710841E3,3.1179297E3,3.154243E3,8.456021E3,3.9167534E3,1.0701868E4,1.7848562E3,1.7188011E3],"tree_param":{"num_deleted":"0","num_feature":"27","num_nodes":"15","size_leaf_vector":"1"}},{"base_weights":[1.9143459E-3,-3.2121333E-1,2.1904767E-1,-6.062171E-2,-4.2808747E-1,3.101951E-1,-1.5851916E-1,2.9682819E-2,-2.266659E-2,-6.0890954E-2,-2.7455164E-2,4.0038873E-2,1.6101895E-2,2.0920373E-3,-7.574585E-2],"categories":[],"categories_nodes":[],"categories_segments":[],"categories_sizes":[],"default_left":[0,0,0,0,0,0,0,0,0,0,0,0,0,0,0],"id":10,"left_children":[1,3,5,7,9,11,13,-1,-1,-1,-1,-1,-1,-1,-1],"loss_changes":[2.4185742E3,3.8582068E2,7.095738E2,4.7042352E2,2.073811E2,3.5456653E2,6.596041E2,0E0,0E0,0E0,0E0,0E0,0E0,0E0,0E0],"parents":[2147483647,0,0,1,1,2,2,3,3,4,4,5,5,6,6],"right_children":[2,4,6,8,10,12,14,-1,-1,-1,-1,-1,-1,-1,-1],"split_conditions":[6.231067E-1,2.002E3,2.004E3,4E0,-4.5935677E1,2.2E1,1.1E1,2.9682819E-2,-2.266659E-2,-6.0890954E-2,-2.7455164E-2,4.0038873E-2,1.6101895E-2,2.0920373E-3,-7.574585E-2],"split_indices":[25,14,14,15,23,2,15,0,0,0,0,0,0,0,0],"split_type":[0,0,0,0,0,0,0,0,0,0,0,0,0,0,0],"sum_hessian":[3.4469387E4,1.3853208E4,2.0616178E4,4.0295376E3,9.82367E3,1.6607244E4,4.008933E3,1.4037825E3,2.6257551E3,1.1159283E3,8.707742E3,4.5420205E3,1.2065224E4,3.3058215E3,7.0311163E2],"tree_param":{"num_deleted":"0","num_feature":"27","num_nodes":"15","size_leaf_vector":"1"}},{"base_weights":[1.403666E-3,-2.5968382E-1,2.4299596E-1,-4.629233E-1,-1.2150477E-1,3.280616E-1,-1.0303268E-1,-1.9314358E-2,-3.9301112E-2,-2.0723592E-3,-3.8418982E-2,3.6504634E-2,1.6291145E-2,-2.3345568E-3,-4.3038405E-2],"categories":[],"categories_nodes":[],"categories_segments":[],"categories_sizes":[],"default_left":[0,0,0,0,0,0,0,0,0,0,0,0,0,0,0],"id":11,"left_children":[1,3,5,7,9,11,13,-1,-1,-1,-1,-1,-1,-1,-1],"loss_changes":[2.1709302E3,4.64479E2,5.2621765E2,9.9871216E1,3.7107196E2,2.5871692E2,1.2192137E2,0E0,0E0,0E0,0E0,0E0,0E0,0E0,0E0],"parents":[2147483647,0,0,1,1,2,2,3,3,4,4,5,5,6,6],"right_children":[2,4,6,8,10,12,14,-1,-1,-1,-1,-1,-1,-1,-1],"split_conditions":[6.9010186E-1,5.045962E-1,2.004E3,2.002E3,2.004E3,2.002E3,8.660254E-1,-1.9314358E-2,-3.9301112E-2,-2.0723592E-3,-3.8418982E-2,3.6504634E-2,1.6291145E-2,-2.3345568E-3,-4.3038405E-2],"split_indices":[25,25,14,14,14,14,21,0,0,0,0,0,0,0,0],"split_type":[0,0,0,0,0,0,0,0,0,0,0,0,0,0,0],"sum_hessian":[3.4415293E4,1.6540254E4,1.787504E4,6.6932275E3,9.847027E3,1.434789E4,3.527149E3,1.8425105E3,4.850717E3,8.005648E3,1.8413793E3,5.438661E3,8.909229E3,3.078437E3,4.4871194E2],"tree_param":{"num_deleted":"0","num_feature":"27","num_nodes":"15","size_leaf_vector":"1"}},{"base_weights":[1.0534512E-3,6.891335E-2,-3.1653064E-1,3.1417567E-1,-1.602434E-2,-4.4266018E-1,9.442942E-2,1.4789583E-2,6.8666674E-2,-3.407926E-2,1.8118649E-3,-2.6763318E-2,-6.524371E-2,1.30903E-2,-7.587327E-2],"categories":[],"categories_nodes":[],"categories_segments":[],"categories_sizes":[],"default_left":[0,0,0,0,0,0,0,0,0,0,0,0,0,0,0],"id":12,"left_children":[1,3,5,7,9,11,13,-1,-1,-1,-1,-1,-1,-1,-1],"loss_changes":[7.391789E2,5.887215E2,3.130431E2,5.0798798E2,3.8636005E2,1.5828778E2,1.3663548E2,0E0,0E0,0E0,0E0,0E0,0E0,0E0,0E0],"parents":[2147483647,0,0,1,1,2,2,3,3,4,4,5,5,6,6],"right_children":[2,4,6,8,10,12,14,-1,-1,-1,-1,-1,-1,-1,-1],"split_conditions":[4.6875E4,2.2E1,-4.570068E1,1.8E1,-4.5947617E1,-4.574151E1,5E1,1.4789583E-2,6.8666674E-2,-3.407926E-2,1.8118649E-3,-2.6763318E-2,-6.524371E-2,1.30903E-2,-7.587327E-2],"split_indices":[11,2,23,2,23,23,8,0,0,0,0,0,0,0,0],"split_type":[0,0,0,0,0,0,0,0,0,0,0,0,0,0,0],"sum_hessian":[3.4296688E4,2.825918E4,6.0375073E3,7.2684434E3,2.0990734E4,4.6196064E3,1.4179008E3,6.169843E3,1.0986008E3,1.7431226E3,1.9247613E4,3.9536829E3,6.659238E2,1.3199479E3,9.795297E1],"tree_param":{"num_deleted":"0","num_feature":"27","num_nodes":"15","size_leaf_vector":"1"}},{"base_weights":[-7.532545E-4,-2.3470503E-1,2.1746908E-1,-4.201793E-1,-1.0850777E-1,2.9704556E-1,-1.0361299E-1,-3.848153E-2,-2.0422295E-2,-1.5652849E-3,-3.541486E-2,1.1760225E-2,3.0320222E-2,-1.4924665E-2,1.261272E-2],"categories":[],"categories_nodes":[],"categories_segments":[],"categories_sizes":[],"default_left":[0,0,0,0,0,0,0,0,0,0,0,0,0,0,0],"id":13,"left_children":[1,3,5,7,9,11,13,-1,-1,-1,-1,-1,-1,-1,-1],"loss_changes":[1.750621E3,3.8729553E2,4.5333325E2,1.0040881E2,3.228667E2,2.2844373E2,9.818692E1,0E0,0E0,0E0,0E0,0E0,0E0,0E0,0E0],"parents":[2147483647,0,0,1,1,2,2,3,3,4,4,5,5,6,6],"right_children":[2,4,6,8,10,12,14,-1,-1,-1,-1,-1,-1,-1,-1],"split_conditions":[6.9010186E-1,5.045962E-1,2.004E3,1.634E3,2.004E3,7.27976E-1,8.013577E-1,-3.848153E-2,-2.0422295E-2,-1.5652849E-3,-3.541486E-2,1.1760225E-2,3.0320222E-2,-1.4924665E-2,1.261272E-2],"split_indices":[25,25,14,6,14,25,25,0,0,0,0,0,0,0,0],"split_type":[0,0,0,0,0,0,0,0,0,0,0,0,0,0,0],"sum_hessian":[3.428793E4,1.6547555E4,1.7740375E4,6.699239E3,9.848315E3,1.4216944E4,3.5234307E3,3.8042517E3,2.8949868E3,7.999354E3,1.8489612E3,6.611533E3,7.605411E3,2.5820574E3,9.413732E2],"tree_param":{"num_deleted":"0","num_feature":"27","num_nodes":"15","size_leaf_vector":"1"}},{"base_weights":[1.2672148E-3,-2.168111E-1,2.0622177E-1,-3.8682404E-1,-1.0092313E-1,1.3373405E-1,4.1873112E-1,-5.7125267E-2,-2.4536954E-2,-5.043752E-3,-5.485898E-2,1.5728187E-2,-3.7252412E-3,3.3142097E-2,-3.179739E-3],"categories":[],"categories_nodes":[],"categories_segments":[],"categories_sizes":[],"default_left":[0,0,0,0,0,0,0,0,0,0,0,0,0,0,0],"id":14,"left_children":[1,3,5,7,9,11,13,-1,-1,-1,-1,-1,-1,-1,-1],"loss_changes":[1.5262203E3,3.2591113E2,2.7110547E2,1.344461E2,2.0375528E2,1.9805774E2,7.274841E1,0E0,0E0,0E0,0E0,0E0,0E0,0E0,0E0],"parents":[2147483647,0,0,1,1,2,2,3,3,4,4,5,5,6,6],"right_children":[2,4,6,8,10,12,14,-1,-1,-1,-1,-1,-1,-1,-1],"split_conditions":[6.9010186E-1,5.045962E-1,8.013577E-1,1.5E1,4.7E1,9E0,1.2E1,-5.7125267E-2,-2.4536954E-2,-5.043752E-3,-5.485898E-2,1.5728187E-2,-3.7252412E-3,3.3142097E-2,-3.179739E-3],"split_indices":[25,25,25,8,9,15,15,0,0,0,0,0,0,0,0],"split_type":[0,0,0,0,0,0,0,0,0,0,0,0,0,0,0],"sum_hessian":[3.414458E4,1.6542627E4,1.7601951E4,6.7044927E3,9.838133E3,1.3126188E4,4.4757627E3,7.614484E2,5.9430444E3,9.379879E3,4.5825397E2,9.102633E3,4.0235552E3,4.1595645E3,3.1619833E2],"tree_param":{"num_deleted":"0","num_feature":"27","num_nodes":"15","size_leaf_vector":"1"}},{"base_weights":[-2.2473064E-4,-1.9978915E-1,1.8973954E-1,-3.557541E-1,-9.337542E-2,8.730901E-2,3.3504108E-1,-5.364547E-2,-2.2421284E-2,-4.74076E-3,-5.6273952E-2,2.2220628E-2,1.3352092E-3,2.7021758E-2,-7.622075E-3],"categories":[],"categories_nodes":[],"categories_segments":[],"categories_sizes":[],"default_left":[0,0,0,0,1,0,0,0,0,0,0,0,0,0,0],"id":15,"left_children":[1,3,5,7,9,11,13,-1,-1,-1,-1,-1,-1,-1,-1],"loss_changes":[1.2928129E3,2.75985E2,2.6000098E2,1.24230835E2,1.9047435E2,1.5349948E2,1.11187256E2,0E0,0E0,0E0,0E0,0E0,0E0,0E0,0E0],"parents":[2147483647,0,0,1,1,2,2,3,3,4,4,5,5,6,6],"right_children":[2,4,6,8,10,12,14,-1,-1,-1,-1,-1,-1,-1,-1],"split_conditions":[6.9010186E-1,5.045962E-1,7.428449E-1,1.5E1,1.2970091E2,2.2E1,1.2E1,-5.364547E-2,-2.2421284E-2,-4.74076E-3,-5.6273952E-2,2.2220628E-2,1.3352092E-3,2.7021758E-2,-7.622075E-3],"split_indices":[25,25,25,8,24,2,15,0,0,0,0,0,0,0,0],"split_type":[0,0,0,0,0,0,0,0,0,0,0,0,0,0,0],"sum_hessian":[3.4100062E4,1.6629799E4,1.7470264E4,6.7436475E3,9.886151E3,1.024772E4,7.2225435E3,7.6641315E2,5.9772344E3,9.488644E3,3.9750757E2,2.4721892E3,7.775531E3,6.6896265E3,5.3291724E2],"tree_param":{"num_deleted":"0","num_feature":"27","num_nodes":"15","size_leaf_vector":"1"}},{"base_weights":[1.0473172E-3,2.3264635E-1,-9.668682E-2,6.233467E-1,1.9612864E-2,-1.7059237E-2,-2.9199624E-1,6.661346E-2,4.1481476E-2,4.275945E-3,-4.445727E-2,9.710691E-4,-3.907962E-2,-1.3709231E-2,-9.921229E-2],"categories":[],"categories_nodes":[],"categories_segments":[],"categories_sizes":[],"default_left":[0,0,0,0,0,1,0,0,0,0,0,0,0,0,0],"id":16,"left_children":[1,3,5,7,9,11,13,-1,-1,-1,-1,-1,-1,-1,-1],"loss_changes":[7.693387E2,8.3951917E2,3.7172076E2,5.6310547E1,1.5982045E2,2.6709915E2,7.6955524E2,0E0,0E0,0E0,0E0,0E0,0E0,0E0,0E0],"parents":[2147483647,0,0,1,1,2,2,3,3,4,4,5,5,6,6],"right_children":[2,4,6,8,10,12,14,-1,-1,-1,-1,-1,-1,-1,-1],"split_conditions":[2.002E3,4E0,2.004E3,4E0,1.29698E2,1.2969545E2,1.2E1,6.661346E-2,4.1481476E-2,4.275945E-3,-4.445727E-2,9.710691E-4,-3.907962E-2,-1.3709231E-2,-9.921229E-2],"split_indices":[14,15,14,7,24,24,15,0,0,0,0,0,0,0,0],"split_type":[0,0,0,0,0,0,0,0,0,0,0,0,0,0,0],"sum_hessian":[3.3986707E4,1.0085612E4,2.3901096E4,3.558129E3,6.5274834E3,1.6979605E4,6.921491E3,5.688588E2,2.9892703E3,6.147429E3,3.8005447E2,1.604073E4,9.3887384E2,6.3063315E3,6.1515967E2],"tree_param":{"num_deleted":"0","num_feature":"27","num_nodes":"15","size_leaf_vector":"1"}},{"base_weights":[8.8351493E-4,-1.871411E-1,1.7275865E-1,-3.2687277E-1,-8.786774E-2,7.7308044E-2,3.1470886E-1,-4.7719616E-2,-2.0795625E-2,-4.199853E-2,-3.1631258E-3,1.1052399E-2,-6.465641E-3,5.3028926E-2,2.0276401E-2],"categories":[],"categories_nodes":[],"categories_segments":[],"categories_sizes":[],"default_left":[0,0,0,0,0,0,0,0,0,0,0,0,0,0,0],"id":17,"left_children":[1,3,5,7,9,11,13,-1,-1,-1,-1,-1,-1,-1,-1],"loss_changes":[1.0975848E3,2.2496454E2,2.403888E2,9.2410706E1,2.0586E2,1.3033453E2,1.0849829E2,0E0,0E0,0E0,0E0,0E0,0E0,0E0,0E0],"parents":[2147483647,0,0,1,1,2,2,3,3,4,4,5,5,6,6],"right_children":[2,4,6,8,10,12,14,-1,-1,-1,-1,-1,-1,-1,-1],"split_conditions":[6.33592E-1,5.045962E-1,7.428449E-1,1.5E1,1.0424E4,9E0,3.14E2,-4.7719616E-2,-2.0795625E-2,-4.199853E-2,-3.1631258E-3,1.1052399E-2,-6.465641E-3,5.3028926E-2,2.0276401E-2],"split_indices":[25,25,25,8,11,15,6,0,0,0,0,0,0,0,0],"split_type":[0,0,0,0,0,0,0,0,0,0,0,0,0,0,0],"sum_hessian":[3.3961332E4,1.6218665E4,1.7742668E4,6.735649E3,9.483017E3,1.0609882E4,7.132786E3,7.670659E2,5.968583E3,7.9333966E2,8.689677E3,7.334968E3,3.2749138E3,5.872886E2,6.5454976E3],"tree_param":{"num_deleted":"0","num_feature":"27","num_nodes":"15","size_leaf_vector":"1"}},{"base_weights":[6.7433657E-4,2.1988586E-1,-9.133541E-2,5.8907676E-1,2.1608297E-2,1.2435492E-1,-1.7564915E-1,4.841681E-2,2.9352032E-2,4.0135756E-3,-3.7538137E-2,3.1960588E-3,5.905236E-2,-8.328344E-3,-3.0078908E-2],"categories":[],"categories_nodes":[],"categories_segments":[],"categories_sizes":[],"default_left":[0,0,0,0,0,0,0,0,0,0,0,0,0,0,0],"id":18,"left_children":[1,3,5,7,9,11,13,-1,-1,-1,-1,-1,-1,-1,-1],"loss_changes":[6.837237E2,7.3360974E2,4.3423883E2,4.8204956E1,1.1655359E2,3.7007E2,2.4978601E2,0E0,0E0,0E0,0E0,0E0,0E0,0E0,0E0],"parents":[2147483647,0,0,1,1,2,2,3,3,4,4,5,5,6,6],"right_children":[2,4,6,8,10,12,14,-1,-1,-1,-1,-1,-1,-1,-1],"split_conditions":[2.002E3,4E0,2.2E1,3E0,1.29698E2,1.7E1,8.660254E-1,4.841681E-2,2.9352032E-2,4.0135756E-3,-3.7538137E-2,3.1960588E-3,5.905236E-2,-8.328344E-3,-3.0078908E-2],"split_indices":[14,15,2,15,24,2,21,0,0,0,0,0,0,0,0],"split_type":[0,0,0,0,0,0,0,0,0,0,0,0,0,0,0],"sum_hessian":[3.389674E4,1.0020853E4,2.3875887E4,3.500669E3,6.520183E3,6.7099937E3,1.7165893E4,2.5069045E3,9.9376447E2,6.1388203E3,3.8136313E2,6.0040557E3,7.05938E2,1.3617461E4,3.5484316E3],"tree_param":{"num_deleted":"0","num_feature":"27","num_nodes":"15","size_leaf_vector":"1"}},{"base_weights":[-6.644431E-4,-1.7111689E-1,1.6351691E-1,-1.0630561E-1,-4.1961625E-1,2.363901E-1,-1.21942066E-1,8.642867E-3,-1.3014591E-2,-6.2531866E-3,-5.6758203E-2,2.7670283E-2,1.1090565E-2,1.7905308E-2,-3.5530116E-2],"categories":[],"categories_nodes":[],"categories_segments":[],"categories_sizes":[],"default_left":[0,0,0,0,0,0,0,0,0,0,0,0,0,0,0],"id":19,"left_children":[1,3,5,7,9,11,13,-1,-1,-1,-1,-1,-1,-1,-1],"loss_changes":[9.464196E2,2.6718625E2,3.583741E2,2.1270517E2,4.0990442E2,1.6525867E2,4.6921158E2,0E0,0E0,0E0,0E0,0E0,0E0,0E0,0E0],"parents":[2147483647,0,0,1,1,2,2,3,3,4,4,5,5,6,6],"right_children":[2,4,6,8,10,12,14,-1,-1,-1,-1,-1,-1,-1,-1],"split_conditions":[6.9010186E-1,2.004E3,2.004E3,2.7E1,6.123234E-17,2.002E3,6.123234E-17,8.642867E-3,-1.3014591E-2,-6.2531866E-3,-5.6758203E-2,2.7670283E-2,1.1090565E-2,1.7905308E-2,-3.5530116E-2],"split_indices":[25,14,14,2,22,14,22,0,0,0,0,0,0,0,0],"split_type":[0,0,0,0,0,0,0,0,0,0,0,0,0,0,0],"sum_hessian":[3.3816684E4,1.6591455E4,1.7225229E4,1.3160488E4,3.4309675E3,1.372231E4,3.5029185E3,3.1913667E3,9.969121E3,1.7748953E3,1.6560723E3,5.1059634E3,8.616346E3,1.7456006E3,1.757318E3],"tree_param":{"num_deleted":"0","num_feature":"27","num_nodes":"15","size_leaf_vector":"1"}},{"base_weights":[9.0255524E-4,1.9605032E-1,-7.985396E-2,5.4764116E-1,9.792921E-3,1.689196E-1,-1.7982161E-1,4.5294985E-2,2.6637774E-2,-1.8916836E-2,4.7994805E-3,1.4868395E-2,-3.3043113E-2,-6.60924E-3,-2.9343551E-2],"categories":[],"categories_nodes":[],"categories_segments":[],"categories_sizes":[],"default_left":[0,0,0,0,1,1,0,0,0,0,0,0,0,0,0],"id":20,"left_children":[1,3,5,7,9,11,13,-1,-1,-1,-1,-1,-1,-1,-1],"loss_changes":[5.3239154E2,6.475251E2,5.9426636E2,4.526819E1,9.7237335E1,1.478027E2,3.379677E2,0E0,0E0,0E0,0E0,0E0,0E0,0E0,0E0],"parents":[2147483647,0,0,1,1,2,2,3,3,4,4,5,5,6,6],"right_children":[2,4,6,8,10,12,14,-1,-1,-1,-1,-1,-1,-1,-1],"split_conditions":[2.002E3,4E0,-5E-1,3E0,4.1745026E1,1.2969545E2,2.004E3,4.5294985E-2,2.6637774E-2,-1.8916836E-2,4.7994805E-3,1.4868395E-2,-3.3043113E-2,-6.60924E-3,-2.9343551E-2],"split_indices":[14,15,22,15,12,24,14,0,0,0,0,0,0,0,0],"split_type":[0,0,0,0,0,0,0,0,0,0,0,0,0,0,0],"sum_hessian":[3.378037E4,9.887015E3,2.3893355E4,3.4232114E3,6.4638037E3,6.8488994E3,1.7044455E4,2.4479626E3,9.7524884E2,1.1125635E3,5.35124E3,6.4873306E3,3.6156857E2,1.2156198E4,4.8882573E3],"tree_param":{"num_deleted":"0","num_feature":"27","num_nodes":"15","size_leaf_vector":"1"}},{"base_weights":[1.4333469E-3,-2.1126361E-1,1.14559844E-1,-5.0498646E-1,-1.6736771E-1,1.7989041E-1,-1.443975E-1,-5.4330256E-2,-1.1784138E-2,-2.9555334E-2,-6.7214314E-3,6.222723E-3,2.3133788E-2,-3.176909E-3,-8.523894E-2],"categories":[],"categories_nodes":[],"categories_segments":[],"categories_sizes":[],"default_left":[0,0,0,0,0,0,0,0,0,0,0,0,0,0,0],"id":21,"left_children":[1,3,5,7,9,11,13,-1,-1,-1,-1,-1,-1,-1,-1],"loss_changes":[8.1037585E2,1.5068195E2,3.7197574E2,1.247207E2,1.8188214E2,2.2755646E2,4.5711768E2,0E0,0E0,0E0,0E0,0E0,0E0,0E0,0E0],"parents":[2147483647,0,0,1,1,2,2,3,3,4,4,5,5,6,6],"right_children":[2,4,6,8,10,12,14,-1,-1,-1,-1,-1,-1,-1,-1],"split_conditions":[5.8531934E-1,-4.5935677E1,2.004E3,-8.767285E1,4.4836897E-1,7.27976E-1,1E0,-5.4330256E-2,-1.1784138E-2,-2.9555334E-2,-6.7214314E-3,6.222723E-3,2.3133788E-2,-3.176909E-3,-8.523894E-2],"split_indices":[25,23,14,13,25,25,22,0,0,0,0,0,0,0,0],"split_type":[0,0,0,0,0,0,0,0,0,0,0,0,0,0,0],"sum_hessian":[3.3677125E4,1.1692458E4,2.1984668E4,1.5188434E3,1.0173614E4,1.7555912E4,4.4287554E3,8.950018E2,6.238416E2,2.4493904E3,7.724224E3,1.03803125E4,7.1756006E3,4.0321157E3,3.966395E2],"tree_param":{"num_deleted":"0","num_feature":"27","num_nodes":"15","size_leaf_vector":"1"}},{"base_weights":[3.7426545E-4,-1.4878458E-1,1.4555657E-1,2.0697689E-2,-2.1838033E-1,3.3043036E-1,6.9213346E-2,-1.3795725E-2,8.100412E-3,-9.3501824E-4,-2.1471733E-2,7.6777553E-3,2.9725868E-2,2.4761593E-2,-2.756064E-3],"categories":[],"categories_nodes":[],"categories_segments":[],"categories_sizes":[],"default_left":[0,0,0,0,0,0,0,0,0,0,0,0,0,0,0],"id":22,"left_children":[1,3,5,7,9,11,13,-1,-1,-1,-1,-1,-1,-1,-1],"loss_changes":[7.281831E2,1.9564005E2,2.4048087E2,9.136755E1,1.8290173E2,8.596118E1,3.4818506E2,0E0,0E0,0E0,0E0,0E0,0E0,0E0,0E0],"parents":[2147483647,0,0,1,1,2,2,3,3,4,4,5,5,6,6],"right_children":[2,4,6,8,10,12,14,-1,-1,-1,-1,-1,-1,-1,-1],"split_conditions":[6.9010186E-1,2.002E3,2.002E3,4.7234115E-1,2.2E1,7.0414543E-1,-5E-1,-1.3795725E-2,8.100412E-3,-9.3501824E-4,-2.1471733E-2,7.6777553E-3,2.9725868E-2,2.4761593E-2,-2.756064E-3],"split_indices":[25,14,14,25,2,25,22,0,0,0,0,0,0,0,0],"split_type":[0,0,0,0,0,0,0,0,0,0,0,0,0,0,0],"sum_hessian":[3.362421E4,1.658496E4,1.703925E4,4.828096E3,1.1756865E4,4.9789136E3,1.2060336E4,1.4525574E3,3.3755388E3,3.1635554E3,8.59331E3,1.2646749E3,3.7142385E3,3.4223452E3,8.63799E3],"tree_param":{"num_deleted":"0","num_feature":"27","num_nodes":"15","size_leaf_vector":"1"}},{"base_weights":[2.2053602E-3,5.7385147E-2,-2.0877759E-1,2.524884E-1,-7.333934E-3,9.2383675E-2,-5.148429E-1,1.107618E-2,6.610175E-2,8.295087E-3,-6.0065244E-3,1.7670752E-2,-4.5985454E-3,-2.8037073E-2,-8.126889E-2],"categories":[],"categories_nodes":[],"categories_segments":[],"categories_sizes":[],"default_left":[0,0,0,0,0,1,0,0,0,0,0,0,0,0,0],"id":23,"left_children":[1,3,5,7,9,11,13,-1,-1,-1,-1,-1,-1,-1,-1],"loss_changes":[3.903554E2,3.3560757E2,6.4078345E2,4.3549036E2,1.8085577E2,8.147516E1,2.694687E2,0E0,0E0,0E0,0E0,0E0,0E0,0E0,0E0],"parents":[2147483647,0,0,1,1,2,2,3,3,4,4,5,5,6,6],"right_children":[2,4,6,8,10,12,14,-1,-1,-1,-1,-1,-1,-1,-1],"split_conditions":[2.004E3,2.2E1,6.123234E-17,1.8E1,2.002E3,1.2948233E2,1E0,1.107618E-2,6.610175E-2,8.295087E-3,-6.0065244E-3,1.7670752E-2,-4.5985454E-3,-2.8037073E-2,-8.126889E-2],"split_indices":[14,2,22,2,14,24,22,0,0,0,0,0,0,0,0],"split_type":[0,0,0,0,0,0,0,0,0,0,0,0,0,0,0],"sum_hessian":[3.3527918E4,2.6577621E4,6.950296E3,6.61949E3,1.995813E4,3.5035657E3,3.44673E3,5.7350845E3,8.844059E2,7.634668E3,1.2323464E4,1.7845051E3,1.7190605E3,2.8292673E3,6.1746277E2],"tree_param":{"num_deleted":"0","num_feature":"27","num_nodes":"15","size_leaf_vector":"1"}},{"base_weights":[1.8256104E-3,1.7258593E-1,-5.839007E-2,8.6408325E-2,8.2058764E-1,-3.6443633E-1,-2.9575529E-2,3.446681E-4,2.5425041E-2,4.3585725E-2,7.035694E-2,-3.4128096E-2,2.2880055E-3,-1.5486863E-2,1.7886498E-3],"categories":[],"categories_nodes":[],"categories_segments":[],"categories_sizes":[],"default_left":[0,0,0,0,0,0,0,0,0,0,0,0,0,0,0],"id":24,"left_children":[1,3,5,7,9,11,13,-1,-1,-1,-1,-1,-1,-1,-1],"loss_changes":[3.442718E2,4.8736548E2,2.1827435E2,1.6477057E2,3.217993E1,8.678778E1,2.232734E2,0E0,0E0,0E0,0E0,0E0,0E0,0E0,0E0],"parents":[2147483647,0,0,1,1,2,2,3,3,4,4,5,5,6,6],"right_children":[2,4,6,8,10,12,14,-1,-1,-1,-1,-1,-1,-1,-1],"split_conditions":[2.3E1,1.8E1,2E1,1.17983E6,3.0611E4,-4.570068E1,4.174673E1,3.446681E-4,2.5425041E-2,4.3585725E-2,7.035694E-2,-3.4128096E-2,2.2880055E-3,-1.5486863E-2,1.7886498E-3],"split_indices":[2,2,9,10,11,23,12,0,0,0,0,0,0,0,0],"split_type":[0,0,0,0,0,0,0,0,0,0,0,0,0,0,0],"sum_hessian":[3.347951E4,8.727656E3,2.4751855E4,7.704209E3,1.0234478E3,2.128878E3,2.2622979E4,5.8726797E3,1.8315289E3,4.0102808E2,6.2241974E2,1.6893044E3,4.3957346E2,5.1697485E3,1.745323E4],"tree_param":{"num_deleted":"0","num_feature":"27","num_nodes":"15","size_leaf_vector":"1"}},{"base_weights":[-7.9705927E-4,-8.3238736E-2,2.2637065E-1,-2.1579258E-1,-2.5882353E-3,6.649141E-1,1.9686833E-1,-1.833307E-2,1.8463623E-2,-2.3294021E-3,2.3788948E-2,-1.1247956E-1,5.0583966E-2,1.7748337E-2,-4.440711E-3],"categories":[],"categories_nodes":[],"categories_segments":[],"categories_sizes":[],"default_left":[0,0,0,0,0,0,0,0,0,0,0,0,0,0,0],"id":25,"left_children":[1,3,5,7,9,11,13,-1,-1,-1,-1,-1,-1,-1,-1],"loss_changes":[6.267334E2,2.624945E2,1.15158905E2,1.5361206E2,1.4695926E2,3.550473E1,9.941049E1,0E0,0E0,0E0,0E0,0E0,0E0,0E0,0E0],"parents":[2147483647,0,0,1,1,2,2,3,3,4,4,5,5,6,6],"right_children":[2,4,6,8,10,12,14,-1,-1,-1,-1,-1,-1,-1,-1],"split_conditions":[7.27976E-1,5.6321186E-1,3.14E2,-4.570068E1,1.182739E6,-4.5843227E1,1.1E1,-1.833307E-2,1.8463623E-2,-2.3294021E-3,2.3788948E-2,-1.1247956E-1,5.0583966E-2,1.7748337E-2,-4.440711E-3],"split_indices":[25,25,6,23,10,23,15,0,0,0,0,0,0,0,0],"split_type":[0,0,0,0,0,0,0,0,0,0,0,0,0,0,0],"sum_hessian":[3.3462887E4,2.4552973E4,8.909912E3,9.287214E3,1.526576E4,5.602606E2,8.349651E3,8.637534E3,6.4968024E2,1.4015554E4,1.2502056E3,6.303052E0,5.539575E2,7.0804824E3,1.2691692E3],"tree_param":{"num_deleted":"0","num_feature":"27","num_nodes":"15","size_leaf_vector":"1"}},{"base_weights":[1.7119433E-3,4.091256E-2,-2.1709146E-1,2.0605081E-1,-1.5342291E-2,-1.6117394E-1,-4.6095788E-1,8.847947E-3,6.0875423E-2,-2.7052535E-2,6.145316E-4,-2.6395459E-2,-8.440069E-3,-2.8844247E-2,-6.077757E-2],"categories":[],"categories_nodes":[],"categories_segments":[],"categories_sizes":[],"default_left":[0,0,0,0,0,0,0,0,0,0,0,0,0,0,0],"id":26,"left_children":[1,3,5,7,9,11,13,-1,-1,-1,-1,-1,-1,-1,-1],"loss_changes":[2.8601447E2,2.6271265E2,6.901448E1,3.827009E2,1.7798642E2,3.760842E1,2.2801361E1,0E0,0E0,0E0,0E0,0E0,0E0,0E0,0E0],"parents":[2147483647,0,0,1,1,2,2,3,3,4,4,5,5,6,6],"right_children":[2,4,6,8,10,12,14,-1,-1,-1,-1,-1,-1,-1,-1],"split_conditions":[1.1E1,2.2E1,7.4E1,1.8E1,7E1,2.5E1,-4.578418E1,8.847947E-3,6.0875423E-2,-2.7052535E-2,6.145316E-4,-2.6395459E-2,-8.440069E-3,-2.8844247E-2,-6.077757E-2],"split_indices":[15,2,2,2,2,9,23,0,0,0,0,0,0,0,0],"split_type":[0,0,0,0,0,0,0,0,0,0,0,0,0,0,0],"sum_hessian":[3.3343754E4,2.8278262E4,5.0654946E3,7.1846846E3,2.1093576E4,4.1219985E3,9.434958E2,6.3298315E3,8.548529E2,1.3217343E3,1.9771842E4,7.6293317E2,3.3590654E3,8.02982E2,1.4051378E2],"tree_param":{"num_deleted":"0","num_feature":"27","num_nodes":"15","size_leaf_vector":"1"}},{"base_weights":[1.7911922E-3,-7.510403E-2,2.1523073E-1,7.646889E-2,-1.3755035E-1,2.717792E-1,3.9066607E-3,-1.1081497E-2,2.2269646E-2,4.368526E-3,-1.5784211E-2,-1.9217495E-2,2.1063866E-2,7.276564E-3,-6.638678E-2],"categories":[],"categories_nodes":[],"categories_segments":[],"categories_sizes":[],"default_left":[0,0,0,0,0,1,0,0,0,0,0,0,0,0,0],"id":27,"left_children":[1,3,5,7,9,11,13,-1,-1,-1,-1,-1,-1,-1,-1],"loss_changes":[5.470051E2,2.3192178E2,1.0548306E2,3.7291727E2,2.692596E2,6.2235962E1,1.6307983E2,0E0,0E0,0E0,0E0,0E0,0E0,0E0,0E0],"parents":[2147483647,0,0,1,1,2,2,3,3,4,4,5,5,6,6],"right_children":[2,4,6,8,10,12,14,-1,-1,-1,-1,-1,-1,-1,-1],"split_conditions":[7.27976E-1,2.002E3,2.004E3,5E-1,-5E-1,4.1760075E1,1E0,-1.1081497E-2,2.2269646E-2,4.368526E-3,-1.5784211E-2,-1.9217495E-2,2.1063866E-2,7.276564E-3,-6.638678E-2],"split_indices":[25,14,14,21,22,12,22,0,0,0,0,0,0,0,0],"split_type":[0,0,0,0,0,0,0,0,0,0,0,0,0,0,0],"sum_hessian":[3.3326625E4,2.450054E4,8.826087E3,7.1486772E3,1.7351861E4,6.9626553E3,1.8634316E3,3.5767104E3,3.5719668E3,4.9425E3,1.2409361E4,2.1015854E2,6.7524966E3,1.687382E3,1.760497E2],"tree_param":{"num_deleted":"0","num_feature":"27","num_nodes":"15","size_leaf_vector":"1"}},{"base_weights":[5.930302E-4,4.916747E-2,-1.8458924E-1,2.579548E-1,2.7313645E-3,-6.881953E-2,-7.1293986E-1,4.054405E-2,-1.8850315E-3,1.2988044E-2,-3.9997883E-3,-3.194762E-2,4.7468194E-3,-3.3346813E-2,-7.112229E-2],"categories":[],"categories_nodes":[],"categories_segments":[],"categories_sizes":[],"default_left":[0,0,0,0,0,0,0,0,0,0,0,0,0,0,0],"id":28,"left_children":[1,3,5,7,9,11,13,-1,-1,-1,-1,-1,-1,-1,-1],"loss_changes":[2.9932108E2,2.5557831E2,4.229029E2,4.0462988E2,2.1721638E2,2.7994214E2,8.269281E1,0E0,0E0,0E0,0E0,0E0,0E0,0E0,0E0],"parents":[2147483647,0,0,1,1,2,2,3,3,4,4,5,5,6,6],"right_children":[2,4,6,8,10,12,14,-1,-1,-1,-1,-1,-1,-1,-1],"split_conditions":[2.004E3,3E0,1.1E1,2.002E3,2.2E1,4E0,1.2E1,4.054405E-2,-1.8850315E-3,1.2988044E-2,-3.9997883E-3,-3.194762E-2,4.7468194E-3,-3.3346813E-2,-7.112229E-2],"split_indices":[14,15,15,14,2,15,15,0,0,0,0,0,0,0,0],"split_type":[0,0,0,0,0,0,0,0,0,0,0,0,0,0,0],"sum_hessian":[3.3273914E4,2.6360207E4,6.9137085E3,4.795225E3,2.156498E4,5.6720137E3,1.2416947E3,2.3413677E3,2.4538574E3,5.330145E3,1.6234836E4,1.509903E3,4.162111E3,6.279988E2,6.13696E2],"tree_param":{"num_deleted":"0","num_feature":"27","num_nodes":"15","size_leaf_vector":"1"}},{"base_weights":[1.5226061E-3,2.2086322E-2,-3.43014E-1,6.543844E-2,-1.3370016E-1,-4.1267395E-1,3.9223447E-1,-3.4529835E-2,5.7274774E-3,-6.9761635E-3,-2.9122321E-2,-3.2456864E-2,2.998594E-2,8.701814E-2,-1.7752195E-2],"categories":[],"categories_nodes":[],"categories_segments":[],"categories_sizes":[],"default_left":[1,0,0,0,0,0,0,0,0,0,0,0,0,0,0],"id":29,"left_children":[1,3,5,7,9,11,13,-1,-1,-1,-1,-1,-1,-1,-1],"loss_changes":[2.3521626E2,2.1159755E2,9.593359E1,1.7153516E2,6.897324E1,4.4938263E1,8.2748825E1,0E0,0E0,0E0,0E0,0E0,0E0,0E0,0E0],"parents":[2147483647,0,0,1,1,2,2,3,3,4,4,5,5,6,6],"right_children":[2,4,6,8,10,12,14,-1,-1,-1,-1,-1,-1,-1,-1],"split_conditions":[1.2969545E2,7.5E1,1.29804E2,-4.5969807E1,-4.5776653E1,-4.5667213E1,-4.5866463E1,-3.4529835E-2,5.7274774E-3,-6.9761635E-3,-2.9122321E-2,-3.2456864E-2,2.998594E-2,8.701814E-2,-1.7752195E-2],"split_indices":[24,2,24,23,23,23,23,0,0,0,0,0,0,0,0],"split_type":[0,0,0,0,0,0,0,0,0,0,0,0,0,0,0],"sum_hessian":[3.319734E4,3.1328434E4,1.8689061E3,2.4508742E4,6.819691E3,1.7075643E3,1.613418E2,5.769997E2,2.3931744E4,5.9627485E3,8.5694257E2,1.6444764E3,6.308797E1,7.1055984E1,9.028581E1],"tree_param":{"num_deleted":"0","num_feature":"27","num_nodes":"15","size_leaf_vector":"1"}},{"base_weights":[-2.8363607E-4,-1.18442595E-1,1.1643906E-1,-1.3661836E-1,4.065138E-1,1.7057943E-1,-6.0163278E-2,-2.879154E-2,-7.997013E-3,4.425649E-2,6.607825E-3,2.4028176E-2,7.834464E-3,6.789209E-4,-1.6103588E-2],"categories":[],"categories_nodes":[],"categories_segments":[],"categories_sizes":[],"default_left":[0,1,0,0,0,0,0,0,0,0,0,0,0,0,0],"id":30,"left_children":[1,3,5,7,9,11,13,-1,-1,-1,-1,-1,-1,-1,-1],"loss_changes":[4.5785004E2,1.5746228E2,1.5968513E2,1.1131015E2,3.4779114E1,1.2816718E2,4.366E1,0E0,0E0,0E0,0E0,0E0,0E0,0E0,0E0],"parents":[2147483647,0,0,1,1,2,2,3,3,4,4,5,5,6,6],"right_children":[2,4,6,8,10,12,14,-1,-1,-1,-1,-1,-1,-1,-1],"split_conditions":[6.9010186E-1,-4.5667213E1,7.5E1,-4.5935677E1,2.003E3,2.002E3,9E0,-2.879154E-2,-7.997013E-3,4.425649E-2,6.607825E-3,2.4028176E-2,7.834464E-3,6.789209E-4,-1.6103588E-2],"split_indices":[25,23,2,23,14,14,15,0,0,0,0,0,0,0,0],"split_type":[0,0,0,0,0,0,0,0,0,0,0,0,0,0,0],"sum_hessian":[3.3195188E4,1.6496094E4,1.6699092E4,1.5944771E4,5.513221E2,1.2780923E4,3.918169E3,1.5161034E3,1.4428668E4,3.3735928E2,2.139628E2,3.646191E3,9.134731E3,2.7346628E3,1.183506E3],"tree_param":{"num_deleted":"0","num_feature":"27","num_nodes":"15","size_leaf_vector":"1"}},{"base_weights":[2.34085E-4,3.601268E-2,-1.6680989E-1,-1.3928623E-1,8.49966E-2,-2.2370665E-1,3.7831256E-1,-1.7790917E-3,-2.6638253E-2,-2.6759777E-2,7.845768E-3,1.2254162E-1,-1.6785791E-2,7.8509234E-2,2.1403026E-2],"categories":[],"categories_nodes":[],"categories_segments":[],"categories_sizes":[],"default_left":[1,0,0,0,0,0,0,0,0,0,0,0,0,0,0],"id":31,"left_children":[1,3,5,7,9,11,13,-1,-1,-1,-1,-1,-1,-1,-1],"loss_changes":[1.9808331E2,2.3440294E2,1.8141995E2,1.5450934E2,2.1627989E2,6.2529236E1,3.2514427E1,0E0,0E0,0E0,0E0,0E0,0E0,0E0,0E0],"parents":[2147483647,0,0,1,1,2,2,3,3,4,4,5,5,6,6],"right_children":[2,4,6,8,10,12,14,-1,-1,-1,-1,-1,-1,-1,-1],"split_conditions":[4.191913E1,4.174673E1,-4.5667213E1,-4.5906197E1,-4.5920837E1,-4.5928013E1,1.2965306E2,-1.7790917E-3,-2.6638253E-2,-2.6759777E-2,7.845768E-3,1.2254162E-1,-1.6785791E-2,7.8509234E-2,2.1403026E-2],"split_indices":[12,12,23,23,23,23,24,0,0,0,0,0,0,0,0],"split_type":[0,0,0,0,0,0,0,0,0,0,0,0,0,0,0],"sum_hessian":[3.314115E4,2.7295582E4,5.845566E3,5.96102E3,2.1334562E4,5.2936357E3,5.519298E2,3.9495056E3,2.0115145E3,1.0098998E3,2.0324662E4,1.6244991E1,5.277391E3,5.886507E1,4.9306473E2],"tree_param":{"num_deleted":"0","num_feature":"27","num_nodes":"15","size_leaf_vector":"1"}},{"base_weights":[2.930347E-3,-1.655444E-1,6.836121E-2,-2.0855513E-1,2.4996491E-2,1.1816646E-1,-1.2427554E-1,-1.9076264E-2,4.8953616E-3,3.0450426E-2,-1.0974138E-2,9.560957E-3,-3.5269003E-2,-5.083781E-3,-3.5594366E-2],"categories":[],"categories_nodes":[],"categories_segments":[],"categories_sizes":[],"default_left":[0,0,0,0,0,1,0,0,0,0,0,0,0,0,0],"id":32,"left_children":[1,3,5,7,9,11,13,-1,-1,-1,-1,-1,-1,-1,-1],"loss_changes":[3.6502884E2,7.5918365E1,2.288471E2,1.0975812E2,1.1734198E2,1.4554013E2,9.723221E1,0E0,0E0,0E0,0E0,0E0,0E0,0E0,0E0],"parents":[2147483647,0,0,1,1,2,2,3,3,4,4,5,5,6,6],"right_children":[2,4,6,8,10,12,14,-1,-1,-1,-1,-1,-1,-1,-1],"split_conditions":[5.6321186E-1,6.6E1,2.004E3,1.193461E6,1.8E1,1.29698E2,8.660254E-1,-1.9076264E-2,4.8953616E-3,3.0450426E-2,-1.0974138E-2,9.560957E-3,-3.5269003E-2,-5.083781E-3,-3.5594366E-2],"split_indices":[25,9,14,10,8,24,21,0,0,0,0,0,0,0,0],"split_type":[0,0,0,0,0,0,0,0,0,0,0,0,0,0,0],"sum_hessian":[3.311183E4,9.262006E3,2.384982E4,7.5562437E3,1.7057625E3,1.8950621E4,4.8992E3,6.343502E3,1.212742E3,5.266217E2,1.1791409E3,1.8557246E4,3.9337482E2,4.259406E3,6.397942E2],"tree_param":{"num_deleted":"0","num_feature":"27","num_nodes":"15","size_leaf_vector":"1"}},{"base_weights":[1.2906616E-3,4.3885026E-2,-1.5991387E-1,2.3634566E-1,1.427901E-3,8.800628E-2,-4.1055644E-1,3.7378717E-2,-1.4528056E-3,1.1341245E-2,-3.5573442E-3,1.519672E-2,-2.546752E-3,-2.2107782E-2,-6.6688046E-2],"categories":[],"categories_nodes":[],"categories_segments":[],"categories_sizes":[],"default_left":[0,0,0,0,0,1,0,0,0,0,0,0,0,0,0],"id":33,"left_children":[1,3,5,7,9,11,13,-1,-1,-1,-1,-1,-1,-1,-1],"loss_changes":[2.2703275E2,2.1371057E2,4.2945016E2,3.3375552E2,1.6536101E2,5.1295647E1,1.859538E2,0E0,0E0,0E0,0E0,0E0,0E0,0E0,0E0],"parents":[2147483647,0,0,1,1,2,2,3,3,4,4,5,5,6,6],"right_children":[2,4,6,8,10,12,14,-1,-1,-1,-1,-1,-1,-1,-1],"split_conditions":[2.004E3,3E0,6.123234E-17,2.002E3,2.2E1,1.2948233E2,1.2E1,3.7378717E-2,-1.4528056E-3,1.1341245E-2,-3.5573442E-3,1.519672E-2,-2.546752E-3,-2.2107782E-2,-6.6688046E-2],"split_indices":[14,15,22,14,2,24,15,0,0,0,0,0,0,0,0],"split_type":[0,0,0,0,0,0,0,0,0,0,0,0,0,0,0],"sum_hessian":[3.306226E4,2.6152762E4,6.9095015E3,4.725812E3,2.1426951E4,3.4739417E3,3.4355596E3,2.2766404E3,2.4491716E3,5.265563E3,1.6161388E4,1.7564484E3,1.7174933E3,2.8302852E3,6.052744E2],"tree_param":{"num_deleted":"0","num_feature":"27","num_nodes":"15","size_leaf_vector":"1"}},{"base_weights":[3.6385207E-4,-6.142577E-2,1.7488155E-1,-2.9306957E-1,-3.583848E-2,6.0246456E-1,1.4704594E-1,-2.482868E-2,2.6195597E-2,-4.7675747E-2,-1.9876775E-3,-7.134606E-3,4.8262052E-2,7.538695E-3,2.712459E-2],"categories":[],"categories_nodes":[],"categories_segments":[],"categories_sizes":[],"default_left":[0,0,0,1,0,0,0,0,0,0,0,0,0,0,0],"id":34,"left_children":[1,3,5,7,9,11,13,-1,-1,-1,-1,-1,-1,-1,-1],"loss_changes":[3.5572177E2,1.4438803E2,1.02574646E2,7.42854E1,1.1665287E2,2.1636383E1,7.958856E1,0E0,0E0,0E0,0E0,0E0,0E0,0E0,0E0],"parents":[2147483647,0,0,1,1,2,2,3,3,4,4,5,5,6,6],"right_children":[2,4,6,8,10,12,14,-1,-1,-1,-1,-1,-1,-1,-1],"split_conditions":[7.27976E-1,4.4836897E-1,3.14E2,1.29804E2,1.134934E6,1.178055E6,1.522E3,-2.482868E-2,2.6195597E-2,-4.7675747E-2,-1.9876775E-3,-7.134606E-3,4.8262052E-2,7.538695E-3,2.712459E-2],"split_indices":[25,25,6,24,10,10,6,0,0,0,0,0,0,0,0],"split_type":[0,0,0,0,0,0,0,0,0,0,0,0,0,0,0],"sum_hessian":[3.298596E4,2.4361273E4,8.624689E3,2.4222249E3,2.1939049E4,5.258873E2,8.098802E3,2.2599082E3,1.6231665E2,3.0113824E2,2.163791E4,4.048216E1,4.8540515E2,6.777369E3,1.3214325E3],"tree_param":{"num_deleted":"0","num_feature":"27","num_nodes":"15","size_leaf_vector":"1"}},{"base_weights":[-1.0438048E-3,-5.7709962E-2,1.6001956E-1,-2.7718234E-1,-3.3557933E-2,5.817446E-1,1.3293816E-1,-4.2533908E-2,-1.3692198E-2,-3.4691365E-3,1.8391354E-2,4.4289425E-2,-3.0673366E-2,-2.2963583E-2,1.1123635E-2],"categories":[],"categories_nodes":[],"categories_segments":[],"categories_sizes":[],"default_left":[0,0,0,0,0,1,1,0,0,0,0,0,0,0,0],"id":35,"left_children":[1,3,5,7,9,11,13,-1,-1,-1,-1,-1,-1,-1,-1],"loss_changes":[3.0031326E2,1.2901358E2,9.772766E1,6.594992E1,8.733234E1,1.3080536E1,6.989787E1,0E0,0E0,0E0,0E0,0E0,0E0,0E0,0E0],"parents":[2147483647,0,0,1,1,2,2,3,3,4,4,5,5,6,6],"right_children":[2,4,6,8,10,12,14,-1,-1,-1,-1,-1,-1,-1,-1],"split_conditions":[7.27976E-1,4.4836897E-1,3.14E2,9.25E2,2.531E3,4.1785484E1,4.1760834E1,-4.2533908E-2,-1.3692198E-2,-3.4691365E-3,1.8391354E-2,4.4289425E-2,-3.0673366E-2,-2.2963583E-2,1.1123635E-2],"split_indices":[25,25,6,6,6,12,12,0,0,0,0,0,0,0,0],"split_type":[0,0,0,0,0,0,0,0,0,0,0,0,0,0,0],"sum_hessian":[3.290239E4,2.4339709E4,8.562682E3,2.4119106E3,2.1927797E4,5.154443E2,8.0472373E3,5.4631573E2,1.865595E3,2.0906734E4,1.0210628E3,5.0338263E2,1.2061665E1,3.337555E2,7.713482E3],"tree_param":{"num_deleted":"0","num_feature":"27","num_nodes":"15","size_leaf_vector":"1"}},{"base_weights":[1.9362789E-4,-4.5192584E-2,1.8178324E-1,-3.986137E-3,-2.0470513E-1,5.517921E-1,1.5077615E-1,1.3907354E-2,-3.431454E-3,-7.77498E-3,-4.8359815E-2,-8.039424E-2,4.286659E-2,-1.407315E-2,1.3493334E-2],"categories":[],"categories_nodes":[],"categories_segments":[],"categories_sizes":[],"default_left":[0,0,0,0,0,0,1,0,0,0,0,0,0,0,0],"id":36,"left_children":[1,3,5,7,9,11,13,-1,-1,-1,-1,-1,-1,-1,-1],"loss_changes":[2.7085892E2,1.7282143E2,7.531233E1,1.7475244E2,2.4254115E2,3.0233932E1,7.08938E1,0E0,0E0,0E0,0E0,0E0,0E0,0E0,0E0],"parents":[2147483647,0,0,1,1,2,2,3,3,4,4,5,5,6,6],"right_children":[2,4,6,8,10,12,14,-1,-1,-1,-1,-1,-1,-1,-1],"split_conditions":[7.428449E-1,2.004E3,3.14E2,3E0,1.1E1,-4.5842213E1,-4.5892334E1,1.3907354E-2,-3.431454E-3,-7.77498E-3,-4.8359815E-2,-8.039424E-2,4.286659E-2,-1.407315E-2,1.3493334E-2],"split_indices":[25,14,6,15,15,23,23,0,0,0,0,0,0,0,0],"split_type":[0,0,0,0,0,0,0,0,0,0,0,0,0,0,0],"sum_hessian":[3.2862586E4,2.6291967E4,6.5706196E3,2.0895191E4,5.3967734E3,5.0675073E2,6.063869E3,3.7838918E3,1.71113E4,4.444E3,9.5277356E2,9.952894E0,4.9679785E2,5.4590137E2,5.517968E3],"tree_param":{"num_deleted":"0","num_feature":"27","num_nodes":"15","size_leaf_vector":"1"}},{"base_weights":[-3.7325206E-4,1.2183151E-1,-4.9573228E-2,-6.1670978E-2,3.1366858E-1,1.4269124E-1,-1.2568763E-1,-1.2132866E-2,3.0666497E-3,5.7813046E-3,3.0835362E-2,-2.292951E-2,1.18339965E-2,7.4167637E-4,-1.5066449E-2],"categories":[],"categories_nodes":[],"categories_segments":[],"categories_sizes":[],"default_left":[0,0,0,0,0,0,0,0,0,0,0,0,0,0,0],"id":37,"left_children":[1,3,5,7,9,11,13,-1,-1,-1,-1,-1,-1,-1,-1],"loss_changes":[1.9751828E2,3.3196793E2,3.4277417E2,5.2220566E1,1.1738974E2,5.8826874E1,1.8382523E2,0E0,0E0,0E0,0E0,0E0,0E0,0E0,0E0],"parents":[2147483647,0,0,1,1,2,2,3,3,4,4,5,5,6,6],"right_children":[2,4,6,8,10,12,14,-1,-1,-1,-1,-1,-1,-1,-1],"split_conditions":[2.002E3,5E-1,-5E-1,3.1846E4,-1.8369701E-16,-8.777181E1,-5E-1,-1.2132866E-2,3.0666497E-3,5.7813046E-3,3.0835362E-2,-2.292951E-2,1.18339965E-2,7.4167637E-4,-1.5066449E-2],"split_indices":[14,21,22,11,22,13,21,0,0,0,0,0,0,0,0],"split_type":[0,0,0,0,0,0,0,0,0,0,0,0,0,0,0],"sum_hessian":[3.2849426E4,9.428667E3,2.3420756E4,4.8193643E3,4.609303E3,6.642067E3,1.677869E4,2.3999126E3,2.419452E3,1.4596732E3,3.1496296E3,2.69664E2,6.372403E3,6.2505503E3,1.052814E4],"tree_param":{"num_deleted":"0","num_feature":"27","num_nodes":"15","size_leaf_vector":"1"}},{"base_weights":[1.4299225E-3,-8.395382E-2,8.7190315E-2,-1.0644628E-1,2.1256539E-1,1.3680062E-1,-7.37399E-2,2.0677694E-3,-1.100895E-2,2.0057322E-2,1.6373546E-4,6.7347744E-3,2.0379685E-2,-4.7095376E-3,-8.703367E-2],"categories":[],"categories_nodes":[],"categories_segments":[],"categories_sizes":[],"default_left":[0,0,0,0,1,0,0,0,0,0,0,0,0,0,0],"id":38,"left_children":[1,3,5,7,9,11,13,-1,-1,-1,-1,-1,-1,-1,-1],"loss_changes":[2.4045657E2,1.0976887E2,1.3080692E2,9.135849E1,1.5160862E1,7.939369E1,3.9830475E1,0E0,0E0,0E0,0E0,0E0,0E0,0E0,0E0],"parents":[2147483647,0,0,1,1,2,2,3,3,4,4,5,5,6,6],"right_children":[2,4,6,8,10,12,14,-1,-1,-1,-1,-1,-1,-1,-1],"split_conditions":[6.9010186E-1,2.525E3,7.6E1,2.5E1,4.1913036E1,8.013577E-1,2.131E3,2.0677694E-3,-1.100895E-2,2.0057322E-2,1.6373546E-4,6.7347744E-3,2.0379685E-2,-4.7095376E-3,-8.703367E-2],"split_indices":[25,6,2,2,12,25,6,0,0,0,0,0,0,0,0],"split_type":[0,0,0,0,0,0,0,0,0,0,0,0,0,0,0],"sum_hessian":[3.283585E4,1.6454068E4,1.6381783E4,1.5294542E4,1.1595265E3,1.2521809E4,3.8599746E3,3.7851448E3,1.1509397E4,8.949205E2,2.64606E2,9.536468E3,2.9853413E3,3.8293752E3,3.059931E1],"tree_param":{"num_deleted":"0","num_feature":"27","num_nodes":"15","size_leaf_vector":"1"}},{"base_weights":[4.699741E-4,1.0845152E-1,-3.9717756E-2,1.2694193E-1,-2.0260826E-1,-1.979827E-2,-2.0812157E-1,-7.5128913E-4,1.1745275E-2,-1.9439304E-2,2.8623043E-2,-1.7876877E-4,-1.828566E-2,-8.900176E-3,-2.5522407E-2],"categories":[],"categories_nodes":[],"categories_segments":[],"categories_sizes":[],"default_left":[0,1,0,0,0,1,0,0,0,0,0,0,0,0,0],"id":39,"left_children":[1,3,5,7,9,11,13,-1,-1,-1,-1,-1,-1,-1,-1],"loss_changes":[1.4221147E2,5.1148827E1,8.011076E1,3.9042877E1,1.8981083E1,8.545718E1,3.0759636E1,0E0,0E0,0E0,0E0,0E0,0E0,0E0,0E0],"parents":[2147483647,0,0,1,1,2,2,3,3,4,4,5,5,6,6],"right_children":[2,4,6,8,10,12,14,-1,-1,-1,-1,-1,-1,-1,-1],"split_conditions":[-5E-1,1.2969545E2,1E0,1.2272E4,1.29804E2,1.2968907E2,2.1E1,-7.5128913E-4,1.1745275E-2,-1.9439304E-2,2.8623043E-2,-1.7876877E-4,-1.828566E-2,-8.900176E-3,-2.5522407E-2],"split_indices":[22,24,22,11,24,24,16,0,0,0,0,0,0,0,0],"split_type":[0,0,0,0,0,0,0,0,0,0,0,0,0,0,0],"sum_hessian":[3.2769152E4,8.887467E3,2.3881684E4,8.389367E3,4.9809952E2,2.135665E4,2.5250337E3,1.6623046E3,6.7270625E3,4.5046194E2,4.7637558E1,1.98633E4,1.4933503E3,1.5696384E3,9.5539545E2],"tree_param":{"num_deleted":"0","num_feature":"27","num_nodes":"15","size_leaf_vector":"1"}},{"base_weights":[1.0137527E-3,-3.994859E-2,1.6682571E-1,-1.9052572E-3,-1.852669E-1,-3.1058806E-1,1.8839309E-1,-6.890195E-3,3.7174835E-3,-4.810356E-2,-1.2305287E-2,-3.054673E-2,3.055903E-2,1.2847704E-2,5.8046516E-2],"categories":[],"categories_nodes":[],"categories_segments":[],"categories_sizes":[],"default_left":[0,0,0,0,0,0,0,0,0,0,0,0,0,0,0],"id":40,"left_children":[1,3,5,7,9,11,13,-1,-1,-1,-1,-1,-1,-1,-1],"loss_changes":[2.2257542E2,1.4527606E2,6.690169E1,1.0170413E2,4.3126816E1,2.2246527E1,4.675505E1,0E0,0E0,0E0,0E0,0E0,0E0,0E0,0E0],"parents":[2147483647,0,0,1,1,2,2,3,3,4,4,5,5,6,6],"right_children":[2,4,6,8,10,12,14,-1,-1,-1,-1,-1,-1,-1,-1],"split_conditions":[7.428449E-1,7.6E1,4.1760834E1,5.6321186E-1,8.3E1,1.193461E6,1.193461E6,-6.890195E-3,3.7174835E-3,-4.810356E-2,-1.2305287E-2,-3.054673E-2,3.055903E-2,1.2847704E-2,5.8046516E-2],"split_indices":[25,2,12,25,2,10,10,0,0,0,0,0,0,0,0],"split_type":[0,0,0,0,0,0,0,0,0,0,0,0,0,0,0],"sum_hessian":[3.276803E4,2.6277236E4,6.490794E3,2.0826115E4,5.4511206E3,2.7997128E2,6.2108228E3,7.571411E3,1.3254705E4,1.849187E2,5.2662017E3,2.4429596E2,3.5675327E1,6.087201E3,1.2362152E2],"tree_param":{"num_deleted":"0","num_feature":"27","num_nodes":"15","size_leaf_vector":"1"}},{"base_weights":[3.36357E-4,-7.375417E-2,7.5053625E-2,-9.527794E-2,2.1155985E-1,1.1941857E-1,-6.728937E-2,1.8648634E-3,-9.842785E-3,2.663429E-2,8.692425E-3,5.4268874E-3,1.7935023E-2,-4.2777713E-3,-7.8166276E-2],"categories":[],"categories_nodes":[],"categories_segments":[],"categories_sizes":[],"default_left":[0,0,0,0,0,0,0,0,0,0,0,0,0,0,0],"id":41,"left_children":[1,3,5,7,9,11,13,-1,-1,-1,-1,-1,-1,-1,-1],"loss_changes":[1.8087515E2,1.0076717E2,1.02740616E2,7.283766E1,1.6271381E1,7.0569916E1,3.3703953E1,0E0,0E0,0E0,0E0,0E0,0E0,0E0,0E0],"parents":[2147483647,0,0,1,1,2,2,3,3,4,4,5,5,6,6],"right_children":[2,4,6,8,10,12,14,-1,-1,-1,-1,-1,-1,-1,-1],"split_conditions":[6.9010186E-1,2.525E3,7.6E1,2.2E1,-8.7756E1,3.2991E4,2.131E3,1.8648634E-3,-9.842785E-3,2.663429E-2,8.692425E-3,5.4268874E-3,1.7935023E-2,-4.2777713E-3,-7.8166276E-2],"split_indices":[25,6,2,2,13,11,6,0,0,0,0,0,0,0,0],"split_type":[0,0,0,0,0,0,0,0,0,0,0,0,0,0,0],"sum_hessian":[3.2671469E4,1.6404543E4,1.6266926E4,1.5254432E4,1.1501116E3,1.2401754E4,3.865172E3,3.7597974E3,1.1494635E4,4.3195135E2,7.1816016E2,9.137821E3,3.2639326E3,3.8329658E3,3.220624E1],"tree_param":{"num_deleted":"0","num_feature":"27","num_nodes":"15","size_leaf_vector":"1"}},{"base_weights":[-2.5490153E-5,1.1701048E-1,-4.687634E-2,3.9907226E-1,-2.3322582E-2,-2.0596744E-1,1.8199261E-2,2.2410618E-2,4.1069653E-2,-1.7591223E-2,2.699505E-3,-2.7743641E-2,-6.0841762E-3,7.977091E-3,-6.184057E-3],"categories":[],"categories_nodes":[],"categories_segments":[],"categories_sizes":[],"default_left":[0,0,0,0,0,0,0,0,0,0,0,0,0,0,0],"id":42,"left_children":[1,3,5,7,9,11,13,-1,-1,-1,-1,-1,-1,-1,-1],"loss_changes":[1.7888835E2,3.6917627E2,2.412078E2,4.6481934E1,8.1723206E1,1.4428455E2,1.5490677E2,0E0,0E0,0E0,0E0,0E0,0E0,0E0,0E0],"parents":[2147483647,0,0,1,1,2,2,3,3,4,4,5,5,6,6],"right_children":[2,4,6,8,10,12,14,-1,-1,-1,-1,-1,-1,-1,-1],"split_conditions":[2.002E3,4E0,5E0,7.0414543E-1,5.57669E-1,2.003E3,9E0,2.2410618E-2,4.1069653E-2,-1.7591223E-2,2.699505E-3,-2.7743641E-2,-6.0841762E-3,7.977091E-3,-6.184057E-3],"split_indices":[14,15,15,25,25,14,15,0,0,0,0,0,0,0,0],"split_type":[0,0,0,0,0,0,0,0,0,0,0,0,0,0,0],"sum_hessian":[3.2622598E4,9.325498E3,2.32971E4,3.097616E3,6.2278823E3,6.7625205E3,1.6534578E4,1.9822277E3,1.1153882E3,1.3506295E3,4.877253E3,2.7952698E3,3.9672507E3,8.772129E3,7.7624497E3],"tree_param":{"num_deleted":"0","num_feature":"27","num_nodes":"15","size_leaf_vector":"1"}},{"base_weights":[1.7577186E-4,3.7144393E-2,-1.3944097E-1,-6.1768174E-2,9.127264E-2,-2.7619127E-2,-2.6193613E-1,-6.702399E-3,1.7991694E-2,9.89163E-3,-3.770785E-3,1.0942676E-2,-7.005761E-3,-4.1326325E-2,-1.53574925E-2],"categories":[],"categories_nodes":[],"categories_segments":[],"categories_sizes":[],"default_left":[0,0,1,0,0,0,0,0,0,0,0,0,0,0,0],"id":43,"left_children":[1,3,5,7,9,11,13,-1,-1,-1,-1,-1,-1,-1,-1],"loss_changes":[1.6840932E2,1.3812466E2,9.355908E1,8.443533E1,1.0530966E2,4.3329098E1,5.1035873E1,0E0,0E0,0E0,0E0,0E0,0E0,0E0,0E0],"parents":[2147483647,0,0,1,1,2,2,3,3,4,4,5,5,6,6],"right_children":[2,4,6,8,10,12,14,-1,-1,-1,-1,-1,-1,-1,-1],"split_conditions":[2.004E3,5.8531934E-1,1.2948233E2,2.531E3,7.5E1,4.5E1,1.2954623E2,-6.702399E-3,1.7991694E-2,9.89163E-3,-3.770785E-3,1.0942676E-2,-7.005761E-3,-4.1326325E-2,-1.53574925E-2],"split_indices":[14,25,24,6,2,9,24,0,0,0,0,0,0,0,0],"split_type":[0,0,0,0,0,0,0,0,0,0,0,0,0,0,0],"sum_hessian":[3.2626365E4,2.579653E4,6.8298374E3,9.123796E3,1.6672732E4,3.5711116E3,3.2587258E3,8.314529E3,8.0926605E2,1.273492E4,3.937813E3,9.9230475E2,2.5788066E3,4.715361E2,2.7871897E3],"tree_param":{"num_deleted":"0","num_feature":"27","num_nodes":"15","size_leaf_vector":"1"}},{"base_weights":[-3.9673182E-7,-3.482992E-2,1.4262623E-1,-4.4188938E-1,-2.5926353E-2,-2.3173203E-1,1.6927183E-1,-5.723399E-2,-2.2349192E-2,3.504975E-5,-1.2628188E-2,-2.2033662E-2,3.058139E-2,2.381459E-2,8.187505E-3],"categories":[],"categories_nodes":[],"categories_segments":[],"categories_sizes":[],"default_left":[0,0,0,0,0,1,0,0,0,0,0,0,0,0,0],"id":44,"left_children":[1,3,5,7,9,11,13,-1,-1,-1,-1,-1,-1,-1,-1],"loss_changes":[1.6183199E2,9.488446E1,6.3819397E1,2.5784378E1,9.947516E1,1.9496881E1,5.3476532E1,0E0,0E0,0E0,0E0,0E0,0E0,0E0,0E0],"parents":[2147483647,0,0,1,1,2,2,3,3,4,4,5,5,6,6],"right_children":[2,4,6,8,10,12,14,-1,-1,-1,-1,-1,-1,-1,-1],"split_conditions":[7.428449E-1,-4.597445E1,1.6904E4,8.12E2,1.1E1,-4.5806267E1,-5E-1,-5.723399E-2,-2.2349192E-2,3.504975E-5,-1.2628188E-2,-2.2033662E-2,3.058139E-2,2.381459E-2,8.187505E-3],"split_indices":[25,23,11,6,15,23,22,0,0,0,0,0,0,0,0],"split_type":[0,0,0,0,0,0,0,0,0,0,0,0,0,0,0],"sum_hessian":[3.2575389E4,2.6182387E4,6.3930015E3,5.5938525E2,2.5623002E4,4.2428604E2,5.968716E3,1.5767728E2,4.0170798E2,2.172229E4,3.900714E3,3.8354318E2,4.0742836E1,1.5925312E3,4.3761846E3],"tree_param":{"num_deleted":"0","num_feature":"27","num_nodes":"15","size_leaf_vector":"1"}},{"base_weights":[2.8013545E-3,-2.0253744E-2,1.7619169E-1,-3.8554227E-1,-1.1210218E-2,-1.1925744E0,1.9328538E-1,8.208765E-3,-3.511679E-2,-1.4846274E-2,4.9100304E-4,-4.4934068E-2,-1.4443749E-1,1.6524483E-2,-1.2126713E-2],"categories":[],"categories_nodes":[],"categories_segments":[],"categories_sizes":[],"default_left":[0,0,0,0,0,0,1,0,0,0,0,0,0,0,0],"id":45,"left_children":[1,3,5,7,9,11,13,-1,-1,-1,-1,-1,-1,-1,-1],"loss_changes":[1.301029E2,9.48929E1,8.9599106E1,3.3012756E1,9.658501E1,2.0205933E1,4.48042E1,0E0,0E0,0E0,0E0,0E0,0E0,0E0,0E0],"parents":[2147483647,0,0,1,1,2,2,3,3,4,4,5,5,6,6],"right_children":[2,4,6,8,10,12,14,-1,-1,-1,-1,-1,-1,-1,-1],"split_conditions":[8.013577E-1,-4.5969807E1,-4.5892334E1,1.4E1,4.4836897E-1,1.137137E6,1.296569E2,8.208765E-3,-3.511679E-2,-1.4846274E-2,4.9100304E-4,-4.4934068E-2,-1.4443749E-1,1.6524483E-2,-1.2126713E-2],"split_indices":[25,23,23,8,25,10,24,0,0,0,0,0,0,0,0],"split_type":[0,0,0,0,0,0,0,0,0,0,0,0,0,0,0],"sum_hessian":[3.2543924E4,2.8725305E4,3.818619E3,6.929717E2,2.8032334E4,4.6252E1,3.772367E3,1.1136222E2,5.8160944E2,2.3926672E3,2.5639666E4,2.7688295E1,1.8563704E1,3.4553013E3,3.1706567E2],"tree_param":{"num_deleted":"0","num_feature":"27","num_nodes":"15","size_leaf_vector":"1"}},{"base_weights":[1.8596159E-3,3.7429694E-2,-1.3254465E-1,-4.568892E-2,8.307697E-2,7.748541E-2,-3.456092E-1,-4.934248E-3,2.8878575E-2,8.287778E-3,-7.7628586E-3,9.23902E-3,-1.4172828E-2,-1.8293276E-2,-5.8468312E-2],"categories":[],"categories_nodes":[],"categories_segments":[],"categories_sizes":[],"default_left":[0,0,0,1,0,1,0,0,0,0,0,0,0,0,0],"id":46,"left_children":[1,3,5,7,9,11,13,-1,-1,-1,-1,-1,-1,-1,-1],"loss_changes":[1.5540944E2,9.7530075E1,3.044472E2,8.801047E1,9.561276E1,4.5661327E1,1.4594199E2,0E0,0E0,0E0,0E0,0E0,0E0,0E0,0E0],"parents":[2147483647,0,0,1,1,2,2,3,3,4,4,5,5,6,6],"right_children":[2,4,6,8,10,12,14,-1,-1,-1,-1,-1,-1,-1,-1],"split_conditions":[2.004E3,5.8531934E-1,6.123234E-17,-4.570068E1,-4.577511E1,-4.578523E1,1E0,-4.934248E-3,2.8878575E-2,8.287778E-3,-7.7628586E-3,9.23902E-3,-1.4172828E-2,-1.8293276E-2,-5.8468312E-2],"split_indices":[14,25,22,23,23,23,22,0,0,0,0,0,0,0,0],"split_type":[0,0,0,0,0,0,0,0,0,0,0,0,0,0,0],"sum_hessian":[3.2505158E4,2.570346E4,6.8016973E3,9.11183E3,1.659163E4,3.4255603E3,3.376137E3,8.682004E3,4.2982587E2,1.4295641E4,2.2959902E3,2.90205E3,5.235101E2,2.7939373E3,5.8219965E2],"tree_param":{"num_deleted":"0","num_feature":"27","num_nodes":"15","size_leaf_vector":"1"}},{"base_weights":[7.3675363E-4,3.398205E-2,-1.2003756E-1,-3.9759334E-4,1.4301717E-1,-1.0000086E-1,-5.324946E-1,2.210953E-2,-7.41237E-4,4.144817E-2,8.461819E-3,-3.5130944E-2,-6.2790713E-3,-5.2015048E-2,-1.9149551E-2],"categories":[],"categories_nodes":[],"categories_segments":[],"categories_sizes":[],"default_left":[0,0,0,0,0,0,1,0,0,0,0,0,0,0,0],"id":47,"left_children":[1,3,5,7,9,11,13,-1,-1,-1,-1,-1,-1,-1,-1],"loss_changes":[1.3019365E2,9.531282E1,5.778888E1,5.7169792E1,7.0160065E1,3.5605034E1,1.5561066E1,0E0,0E0,0E0,0E0,0E0,0E0,0E0,0E0],"parents":[2147483647,0,0,1,1,2,2,3,3,4,4,5,5,6,6],"right_children":[2,4,6,8,10,12,14,-1,-1,-1,-1,-1,-1,-1,-1],"split_conditions":[7.6E1,7.27976E-1,9E1,8.4E2,3.14E2,8.3E1,1.2956319E2,2.210953E-2,-7.41237E-4,4.144817E-2,8.461819E-3,-3.5130944E-2,-6.2790713E-3,-5.2015048E-2,-1.9149551E-2],"split_indices":[2,25,2,11,6,2,24,0,0,0,0,0,0,0,0],"split_type":[0,0,0,0,0,0,0,0,0,0,0,0,0,0,0],"sum_hessian":[3.2423355E4,2.5425303E4,6.9980522E3,1.9331062E4,6.094241E3,6.6750293E3,3.23023E2,6.015673E2,1.8729494E4,3.6486084E2,5.7293804E3,2.3550279E2,6.4395264E3,1.9297066E2,1.3005235E2],"tree_param":{"num_deleted":"0","num_feature":"27","num_nodes":"15","size_leaf_vector":"1"}},{"base_weights":[-6.266405E-4,1.0376447E-1,-4.2301156E-2,-5.5828984E-3,1.9952153E-1,1.08870134E-1,-1.012565E-1,-3.768758E-2,1.0731688E-3,-1.1445383E-1,1.5055004E-2,-1.7932212E-2,9.047972E-3,-1.2431734E-2,-5.6971516E-4],"categories":[],"categories_nodes":[],"categories_segments":[],"categories_sizes":[],"default_left":[0,0,0,1,0,0,0,0,0,0,0,0,0,0,0],"id":48,"left_children":[1,3,5,7,9,11,13,-1,-1,-1,-1,-1,-1,-1,-1],"loss_changes":[1.4109749E2,9.689293E1,2.0659328E2,4.4747356E1,5.8322556E1,3.4702065E1,1.07523834E2,0E0,0E0,0E0,0E0,0E0,0E0,0E0,0E0],"parents":[2147483647,0,0,1,1,2,2,3,3,4,4,5,5,6,6],"right_children":[2,4,6,8,10,12,14,-1,-1,-1,-1,-1,-1,-1,-1],"split_conditions":[2.002E3,6.123234E-17,-5E-1,-4.5958424E1,3.2E1,-8.777181E1,4.2E1,-3.768758E-2,1.0731688E-3,-1.1445383E-1,1.5055004E-2,-1.7932212E-2,9.047972E-3,-1.2431734E-2,-5.6971516E-4],"split_indices":[14,22,22,23,9,13,9,0,0,0,0,0,0,0,0],"split_type":[0,0,0,0,0,0,0,0,0,0,0,0,0,0,0],"sum_hessian":[3.2430852E4,9.252539E3,2.3178312E4,4.320171E3,4.932368E3,6.502914E3,1.6675398E4,1.6411581E2,4.1560547E3,1.7623676E1,4.9147446E3,2.640764E2,6.2388374E3,9.592688E3,7.0827095E3],"tree_param":{"num_deleted":"0","num_feature":"27","num_nodes":"15","size_leaf_vector":"1"}},{"base_weights":[-8.127252E-4,1.0745943E-1,-3.7780844E-2,2.7244775E-2,7.341927E-1,-3.7642604E-1,-1.524727E-2,1.3241153E-2,-3.867827E-3,3.4333013E-2,6.341692E-2,-2.2719001E-2,-4.5334328E-2,1.3559023E-3,-1.1296356E-2],"categories":[],"categories_nodes":[],"categories_segments":[],"categories_sizes":[],"default_left":[0,0,0,1,1,0,0,0,0,0,0,0,0,0,0],"id":49,"left_children":[1,3,5,7,9,11,13,-1,-1,-1,-1,-1,-1,-1,-1],"loss_changes":[1.2968753E2,4.145816E2,1.8430833E2,9.0390274E1,3.276596E1,2.385524E1,1.068051E2,0E0,0E0,0E0,0E0,0E0,0E0,0E0,0E0],"parents":[2147483647,0,0,1,1,2,2,3,3,4,4,5,5,6,6],"right_children":[2,4,6,8,10,12,14,-1,-1,-1,-1,-1,-1,-1,-1],"split_conditions":[2.2E1,1.8E1,7E1,1.294181E2,1.2945834E2,6.6E1,2.004E3,1.3241153E-2,-3.867827E-3,3.4333013E-2,6.341692E-2,-2.2719001E-2,-4.5334328E-2,1.3559023E-3,-1.1296356E-2],"split_indices":[2,2,2,24,24,2,14,0,0,0,0,0,0,0,0],"split_type":[0,0,0,0,0,0,0,0,0,0,0,0,0,0,0],"sum_hessian":[3.2398664E4,8.245971E3,2.4152693E4,7.311258E3,9.3471344E2,1.5058818E3,2.264681E4,2.502575E3,4.8086826E3,3.1666232E2,6.1805115E2,1.1902031E3,3.1567868E2,1.8227666E4,4.4191436E3],"tree_param":{"num_deleted":"0","num_feature":"27","num_nodes":"15","size_leaf_vector":"1"}},{"base_weights":[1.3317534E-3,2.389803E-2,-1.2298235E-1,-3.0887905E-1,3.3823937E-2,-9.838703E-2,-3.0645147E-1,-5.841414E-2,-1.9608948E-2,3.4724218E-3,-1.3589566E-2,-9.1918735E-3,2.469125E-3,-2.8114697E-2,8.428738E-3],"categories":[],"categories_nodes":[],"categories_segments":[],"categories_sizes":[],"default_left":[0,0,1,0,1,0,0,0,0,0,0,0,0,0,0],"id":50,"left_children":[1,3,5,7,9,11,13,-1,-1,-1,-1,-1,-1,-1,-1],"loss_changes":[9.0784325E1,9.048158E1,2.2405685E1,1.5502365E1,8.032391E1,1.5944954E1,1.9511402E1,0E0,0E0,0E0,0E0,0E0,0E0,0E0,0E0],"parents":[2147483647,0,0,1,1,2,2,3,3,4,4,5,5,6,6],"right_children":[2,4,6,8,10,12,14,-1,-1,-1,-1,-1,-1,-1,-1],"split_conditions":[1.1E1,-4.5963585E1,-4.5773E1,1.136477E6,1.2969545E2,1.62E2,-4.5672836E1,-5.841414E-2,-1.9608948E-2,3.4724218E-3,-1.3589566E-2,-9.1918735E-3,2.469125E-3,-2.8114697E-2,8.428738E-3],"split_indices":[15,23,23,10,24,1,23,0,0,0,0,0,0,0,0],"split_type":[0,0,0,0,0,0,0,0,0,0,0,0,0,0,0],"sum_hessian":[3.2359594E4,2.7388645E4,4.9709507E3,7.924011E2,2.6596242E4,4.3846885E3,5.8626196E2,5.8718468E1,7.336826E2,2.5034154E4,1.5620885E3,3.6298416E3,7.548472E2,4.9429004E2,9.197189E1],"tree_param":{"num_deleted":"0","num_feature":"27","num_nodes":"15","size_leaf_vector":"1"}},{"base_weights":[2.2180604E-4,9.3118E-2,-3.6699794E-2,3.5561287E-1,-3.4527756E-2,1.7301181E-2,-2.4401824E-1,1.9857598E-2,3.7298203E-2,-4.1637123E-3,2.3454495E-2,6.904492E-3,-3.7730504E-3,-3.515667E-2,-4.1645346E-3],"categories":[],"categories_nodes":[],"categories_segments":[],"categories_sizes":[],"default_left":[0,0,0,0,0,0,0,0,0,0,0,0,0,0,0],"id":51,"left_children":[1,3,5,7,9,11,13,-1,-1,-1,-1,-1,-1,-1,-1],"loss_changes":[1.1102776E2,3.0849197E2,2.5933643E2,3.8970734E1,4.95909E1,9.793208E1,2.125047E2,0E0,0E0,0E0,0E0,0E0,0E0,0E0,0E0],"parents":[2147483647,0,0,1,1,2,2,3,3,4,4,5,5,6,6],"right_children":[2,4,6,8,10,12,14,-1,-1,-1,-1,-1,-1,-1,-1],"split_conditions":[2.002E3,4E0,8.660254E-1,7.0414543E-1,8.070749E-1,-1.8369701E-16,2.003E3,1.9857598E-2,3.7298203E-2,-4.1637123E-3,2.3454495E-2,6.904492E-3,-3.7730504E-3,-3.515667E-2,-4.1645346E-3],"split_indices":[14,15,21,25,25,22,14,0,0,0,0,0,0,0,0],"split_type":[0,0,0,0,0,0,0,0,0,0,0,0,0,0,0],"sum_hessian":[3.2368781E4,9.205603E3,2.3163178E4,3.011294E3,6.1943086E3,1.8377295E4,4.7858833E3,1.9582303E3,1.0530635E3,5.8267173E3,3.675914E2,8.66804E3,9.709255E3,2.1077583E3,2.678125E3],"tree_param":{"num_deleted":"0","num_feature":"27","num_nodes":"15","size_leaf_vector":"1"}},{"base_weights":[1.8588097E-3,3.2585956E-2,-1.09180056E-1,-1.6804998E-1,4.3819778E-2,-9.152406E-2,-4.6848053E-1,3.5786927E-2,-1.7552728E-2,-4.5794E-3,5.196471E-3,-3.0019563E-2,-5.3804284E-3,-1.7895764E-2,-4.5497607E-2],"categories":[],"categories_nodes":[],"categories_segments":[],"categories_sizes":[],"default_left":[0,0,0,0,0,0,0,0,0,0,0,0,0,0,0],"id":52,"left_children":[1,3,5,7,9,11,13,-1,-1,-1,-1,-1,-1,-1,-1],"loss_changes":[1.10234985E2,5.7044853E1,4.4381622E1,6.400227E1,6.981811E1,3.80333E1,1.116732E1,0E0,0E0,0E0,0E0,0E0,0E0,0E0,0E0],"parents":[2147483647,0,0,1,1,2,2,3,3,4,4,5,5,6,6],"right_children":[2,4,6,8,10,12,14,-1,-1,-1,-1,-1,-1,-1,-1],"split_conditions":[7.6E1,1.137826E6,9E1,1.122062E6,1.2507E4,3E0,1.160472E6,3.5786927E-2,-1.7552728E-2,-4.5794E-3,5.196471E-3,-3.0019563E-2,-5.3804284E-3,-1.7895764E-2,-4.5497607E-2],"split_indices":[2,10,2,10,11,7,10,0,0,0,0,0,0,0,0],"split_type":[0,0,0,0,0,0,0,0,0,0,0,0,0,0,0],"sum_hessian":[3.2306857E4,2.5305045E4,7.001813E3,1.3409912E3,2.3964053E4,6.675056E3,3.2675702E2,1.3221175E2,1.2087794E3,4.894415E3,1.9069639E4,3.5175253E2,6.323303E3,1.3469849E2,1.9205855E2],"tree_param":{"num_deleted":"0","num_feature":"27","num_nodes":"15","size_leaf_vector":"1"}},{"base_weights":[1.0264203E-3,3.1427786E-2,-1.1366667E-1,1.8741645E-1,-2.1761495E-3,-5.7988744E-2,-7.1450436E-1,2.896067E-2,4.3185713E-4,-3.2508697E-3,7.7625457E-3,4.0774487E-4,-3.268751E-2,-4.633746E-2,-6.67203E-2],"categories":[],"categories_nodes":[],"categories_segments":[],"categories_sizes":[],"default_left":[0,0,0,0,0,0,0,0,0,0,0,0,0,0,0],"id":53,"left_children":[1,3,5,7,9,11,13,-1,-1,-1,-1,-1,-1,-1,-1],"loss_changes":[1.1274801E2,1.339828E2,2.2661139E2,1.7201227E2,9.661135E1,1.536289E2,8.567322E0,0E0,0E0,0E0,0E0,0E0,0E0,0E0,0E0],"parents":[2147483647,0,0,1,1,2,2,3,3,4,4,5,5,6,6],"right_children":[2,4,6,8,10,12,14,-1,-1,-1,-1,-1,-1,-1,-1],"split_conditions":[2.004E3,3E0,1.2E1,2.002E3,2.4E1,8.660254E-1,3.8329E4,2.896067E-2,4.3185713E-4,-3.2508697E-3,7.7625457E-3,4.0774487E-4,-3.268751E-2,-4.633746E-2,-6.67203E-2],"split_indices":[14,15,15,14,8,21,11,0,0,0,0,0,0,0,0],"split_type":[0,0,0,0,0,0,0,0,0,0,0,0,0,0,0],"sum_hessian":[3.23334E4,2.5559219E4,6.7741816E3,4.5293774E3,2.102984E4,6.200679E3,5.7350275E2,2.1036223E3,2.4257554E3,1.5126232E4,5.903608E3,5.3317876E3,8.688915E2,4.1228552E2,1.6121725E2],"tree_param":{"num_deleted":"0","num_feature":"27","num_nodes":"15","size_leaf_vector":"1"}},{"base_weights":[-1.3716907E-3,-2.1094287E-2,1.4925176E-1,-2.6589888E-1,-8.649497E-3,-1.5133306E-1,1.9865198E-1,-3.5940245E-2,3.3392848E-3,2.852456E-2,-1.3503894E-3,-2.6306173E-2,4.1357767E-2,-2.1352392E-2,1.7434197E-2],"categories":[],"categories_nodes":[],"categories_segments":[],"categories_sizes":[],"default_left":[0,0,0,0,0,0,0,0,0,0,0,0,0,0,0],"id":54,"left_children":[1,3,5,7,9,11,13,-1,-1,-1,-1,-1,-1,-1,-1],"loss_changes":[9.5878365E1,8.69399E1,5.5517143E1,9.737802E1,1.0675378E2,7.937876E1,6.3284897E1,0E0,0E0,0E0,0E0,0E0,0E0,0E0,0E0],"parents":[2147483647,0,0,1,1,2,2,3,3,4,4,5,5,6,6],"right_children":[2,4,6,8,10,12,14,-1,-1,-1,-1,-1,-1,-1,-1],"split_conditions":[8.013577E-1,4.14E2,1.7793E4,1.2943793E2,4.23E2,-8.756653E1,-8.776923E1,-3.5940245E-2,3.3392848E-3,2.852456E-2,-1.3503894E-3,-2.6306173E-2,4.1357767E-2,-2.1352392E-2,1.7434197E-2],"split_indices":[25,6,11,24,6,13,13,0,0,0,0,0,0,0,0],"split_type":[0,0,0,0,0,0,0,0,0,0,0,0,0,0,0],"sum_hessian":[3.2272766E4,2.8536998E4,3.7357676E3,1.379531E3,2.7157467E4,5.2701056E2,3.208757E3,7.988516E2,5.8067944E2,6.52485E2,2.6504982E4,4.085746E2,1.18436005E2,2.417986E2,2.9669585E3],"tree_param":{"num_deleted":"0","num_feature":"27","num_nodes":"15","size_leaf_vector":"1"}},{"base_weights":[1.329738E-3,3.0236952E-2,-1.025157E-1,-4.1664645E-2,7.296238E-2,-8.6454615E-2,-4.2798328E-1,1.0103927E-1,-3.2500282E-3,1.3243984E-2,2.272956E-3,-2.7698986E-2,-5.0991466E-3,-3.792129E-2,-7.4667092E-3],"categories":[],"categories_nodes":[],"categories_segments":[],"categories_sizes":[],"default_left":[0,0,0,0,0,0,0,0,0,0,0,0,0,0,0],"id":55,"left_children":[1,3,5,7,9,11,13,-1,-1,-1,-1,-1,-1,-1,-1],"loss_changes":[9.686888E1,7.7549E1,3.6694313E1,3.8202744E1,7.180798E1,3.2580223E1,9.770935E0,0E0,0E0,0E0,0E0,0E0,0E0,0E0,0E0],"parents":[2147483647,0,0,1,1,2,2,3,3,4,4,5,5,6,6],"right_children":[2,4,6,8,10,12,14,-1,-1,-1,-1,-1,-1,-1,-1],"split_conditions":[7.6E1,5.8531934E-1,9E1,2E0,2.002E3,3E0,7.5E1,1.0103927E-1,-3.2500282E-3,1.3243984E-2,2.272956E-3,-2.7698986E-2,-5.0991466E-3,-3.792129E-2,-7.4667092E-3],"split_indices":[2,25,2,2,14,7,4,0,0,0,0,0,0,0,0],"split_type":[0,0,0,0,0,0,0,0,0,0,0,0,0,0,0],"sum_hessian":[3.226735E4,2.5241611E4,7.0257397E3,9.408425E3,1.5833187E4,6.696546E3,3.291937E2,1.776683E1,9.390657E3,4.407689E3,1.1425497E4,3.584911E2,6.338055E3,2.5663388E2,7.255979E1],"tree_param":{"num_deleted":"0","num_feature":"27","num_nodes":"15","size_leaf_vector":"1"}},{"base_weights":[-9.537205E-4,9.074343E-2,-3.2019373E-2,1.4770938E-2,7.007461E-1,-3.6405444E-1,-9.963482E-3,-2.9719437E-3,1.5172895E-2,3.2545842E-2,6.31161E-2,-2.2076385E-2,-4.3351054E-2,2.0868964E-3,-6.966212E-3],"categories":[],"categories_nodes":[],"categories_segments":[],"categories_sizes":[],"default_left":[0,0,0,0,1,0,0,0,0,0,0,0,0,0,0],"id":56,"left_children":[1,3,5,7,9,11,13,-1,-1,-1,-1,-1,-1,-1,-1],"loss_changes":[9.18814E1,3.782521E2,1.7643288E2,7.773255E1,3.7334747E1,2.1089905E1,7.440103E1,0E0,0E0,0E0,0E0,0E0,0E0,0E0,0E0],"parents":[2147483647,0,0,1,1,2,2,3,3,4,4,5,5,6,6],"right_children":[2,4,6,8,10,12,14,-1,-1,-1,-1,-1,-1,-1,-1],"split_conditions":[2.2E1,1.8E1,7E1,-8.7615814E1,4.1837944E1,6.6E1,7.6E1,-2.9719437E-3,1.5172895E-2,3.2545842E-2,6.31161E-2,-2.2076385E-2,-4.3351054E-2,2.0868964E-3,-6.966212E-3],"split_indices":[2,2,2,13,12,2,2,0,0,0,0,0,0,0,0],"split_type":[0,0,0,0,0,0,0,0,0,0,0,0,0,0,0],"sum_hessian":[3.2252549E4,8.1611597E3,2.409139E4,7.2582134E3,9.029465E2,1.4996573E3,2.2591732E4,5.638554E3,1.6196589E3,3.543399E2,5.4860657E2,1.1837809E3,3.1587643E2,1.5568863E4,7.0228696E3],"tree_param":{"num_deleted":"0","num_feature":"27","num_nodes":"15","size_leaf_vector":"1"}},{"base_weights":[-3.3595185E-5,2.8021667E-2,-1.0568832E-1,2.0334288E-2,4.5865285E-1,7.498451E-2,-2.8846848E-1,2.5848781E-3,-1.7323604E-2,8.5602984E-2,2.8329933E-2,8.518534E-3,-1.3666608E-2,5.9750527E-3,-2.7896386E-2],"categories":[],"categories_nodes":[],"categories_segments":[],"categories_sizes":[],"default_left":[0,1,0,1,0,1,0,0,0,0,0,0,0,0,0],"id":57,"left_children":[1,3,5,7,9,11,13,-1,-1,-1,-1,-1,-1,-1,-1],"loss_changes":[9.559555E1,8.435195E1,2.2348523E2,9.7165054E1,2.2087273E1,3.720839E1,1.1658493E2,0E0,0E0,0E0,0E0,0E0,0E0,0E0,0E0],"parents":[2147483647,0,0,1,1,2,2,3,3,4,4,5,5,6,6],"right_children":[2,4,6,8,10,12,14,-1,-1,-1,-1,-1,-1,-1,-1],"split_conditions":[2.004E3,-4.5667213E1,6.123234E-17,-4.5736504E1,1.296519E2,-4.578038E1,-5E-1,2.5848781E-3,-1.7323604E-2,8.5602984E-2,2.8329933E-2,8.518534E-3,-1.3666608E-2,5.9750527E-3,-2.7896386E-2],"split_indices":[14,23,22,23,24,23,21,0,0,0,0,0,0,0,0],"split_type":[0,0,0,0,0,0,0,0,0,0,0,0,0,0,0],"sum_hessian":[3.224835E4,2.5482525E4,6.7658237E3,2.5036633E4,4.458922E2,3.402823E3,3.363001E3,2.365403E4,1.3826042E3,3.8776638E1,4.0711557E2,2.9365374E3,4.6628546E2,6.7838385E2,2.6846172E3],"tree_param":{"num_deleted":"0","num_feature":"27","num_nodes":"15","size_leaf_vector":"1"}},{"base_weights":[3.129005E-4,-1.7751217E-2,1.394468E-1,-2.7161019E-2,2.5444075E-1,-8.849921E-1,1.5662381E-1,-2.3662057E-4,-1.3142149E-2,6.210237E-2,1.5534415E-2,-5.147955E-2,-1.5580623E-1,-1.155867E-2,1.5077351E-2],"categories":[],"categories_nodes":[],"categories_segments":[],"categories_sizes":[],"default_left":[0,0,0,0,0,0,0,0,0,0,0,0,0,0,0],"id":58,"left_children":[1,3,5,7,9,11,13,-1,-1,-1,-1,-1,-1,-1,-1],"loss_changes":[8.088227E1,7.296031E1,6.52125E1,1.006438E2,2.3477772E1,1.2236286E1,5.715152E1,0E0,0E0,0E0,0E0,0E0,0E0,0E0,0E0],"parents":[2147483647,0,0,1,1,2,2,3,3,4,4,5,5,6,6],"right_children":[2,4,6,8,10,12,14,-1,-1,-1,-1,-1,-1,-1,-1],"split_conditions":[8.013577E-1,-4.5667213E1,-4.5891327E1,-4.577511E1,4.199613E1,1.137826E6,4.176462E1,-2.3662057E-4,-1.3142149E-2,6.210237E-2,1.5534415E-2,-5.147955E-2,-1.5580623E-1,-1.155867E-2,1.5077351E-2],"split_indices":[25,23,23,23,12,10,12,0,0,0,0,0,0,0,0],"split_type":[0,0,0,0,0,0,0,0,0,0,0,0,0,0,0],"sum_hessian":[3.2179318E4,2.8482264E4,3.6970542E3,2.753139E4,9.508727E2,6.0133976E1,3.6369202E3,2.3806057E4,3.7253335E3,6.0907066E1,8.8996564E2,5.3925816E1,6.2081585E0,4.9679663E2,3.1401235E3],"tree_param":{"num_deleted":"0","num_feature":"27","num_nodes":"15","size_leaf_vector":"1"}},{"base_weights":[-1.6673523E-3,8.775702E-2,-3.1855494E-2,1.6688278E-2,6.7159E-1,-3.286906E-1,-1.1977861E-2,1.0921639E-2,-3.7476611E-3,3.1358153E-2,6.05941E-2,-1.934463E-2,-4.1238412E-2,1.1221063E-3,-9.113595E-3],"categories":[],"categories_nodes":[],"categories_segments":[],"categories_sizes":[],"default_left":[0,0,0,1,1,0,0,0,0,0,0,0,0,0,0],"id":59,"left_children":[1,3,5,7,9,11,13,-1,-1,-1,-1,-1,-1,-1,-1],"loss_changes":[8.684386E1,3.368679E2,1.4190356E2,6.543039E1,3.340146E1,2.257277E1,6.9552246E1,0E0,0E0,0E0,0E0,0E0,0E0,0E0,0E0],"parents":[2147483647,0,0,1,1,2,2,3,3,4,4,5,5,6,6],"right_children":[2,4,6,8,10,12,14,-1,-1,-1,-1,-1,-1,-1,-1],"split_conditions":[2.3E1,1.8E1,7E1,1.294181E2,4.1837944E1,6.6E1,2.004E3,1.0921639E-2,-3.7476611E-3,3.1358153E-2,6.05941E-2,-1.934463E-2,-4.1238412E-2,1.1221063E-3,-9.113595E-3],"split_indices":[2,2,2,24,12,2,14,0,0,0,0,0,0,0,0],"split_type":[0,0,0,0,0,0,0,0,0,0,0,0,0,0,0],"sum_hessian":[3.216765E4,8.118081E3,2.404957E4,7.2380386E3,8.800424E2,1.5084324E3,2.2541137E4,2.4500098E3,4.788029E3,3.4926797E2,5.307744E2,1.1892803E3,3.1915207E2,1.8144607E4,4.39653E3],"tree_param":{"num_deleted":"0","num_feature":"27","num_nodes":"15","size_leaf_vector":"1"}},{"base_weights":[1.3459454E-3,7.862704E-2,-2.7175564E-2,5.547346E-2,2.2150615E-1,9.3162835E-2,-7.68224E-2,-8.687237E-3,6.2302724E-3,2.534833E-2,-2.4181337E-3,-7.7716922E-3,1.9713426E-2,-1.5844066E-3,-1.552323E-2],"categories":[],"categories_nodes":[],"categories_segments":[],"categories_sizes":[],"default_left":[0,0,0,0,0,0,0,0,0,0,0,0,0,0,0],"id":60,"left_children":[1,3,5,7,9,11,13,-1,-1,-1,-1,-1,-1,-1,-1],"loss_changes":[7.090341E1,2.867464E1,1.4038374E2,3.8872726E1,3.8684223E1,2.4222057E2,1.24486115E2,0E0,0E0,0E0,0E0,0E0,0E0,0E0,0E0],"parents":[2147483647,0,0,1,1,2,2,3,3,4,4,5,5,6,6],"right_children":[2,4,6,8,10,12,14,-1,-1,-1,-1,-1,-1,-1,-1],"split_conditions":[-5E-1,-8.760781E1,2.002E3,1.5E1,4.5E1,1.2246469E-16,8.660254E-1,-8.687237E-3,6.2302724E-3,2.534833E-2,-2.4181337E-3,-7.7716922E-3,1.9713426E-2,-1.5844066E-3,-1.552323E-2],"split_indices":[22,13,14,8,9,21,21,0,0,0,0,0,0,0,0],"split_type":[0,0,0,0,0,0,0,0,0,0,0,0,0,0,0],"sum_hessian":[3.2165826E4,8.67056E3,2.3495268E4,7.462628E3,1.2079319E3,6.8619023E3,1.6633365E4,1.0899169E3,6.372711E3,8.085961E2,3.9933575E2,3.2234407E3,3.638462E3,1.183087E4,4.8024946E3],"tree_param":{"num_deleted":"0","num_feature":"27","num_nodes":"15","size_leaf_vector":"1"}},{"base_weights":[-6.9863885E-4,2.4684956E-2,-9.625692E-2,1.676273E-1,-5.837537E-3,-4.419126E-2,-6.6956073E-1,2.6105106E-2,5.7871355E-4,7.075001E-3,-3.0911306E-3,5.1419497E-3,-1.3299656E-2,-2.865104E-2,-7.74336E-2],"categories":[],"categories_nodes":[],"categories_segments":[],"categories_sizes":[],"default_left":[0,0,0,0,0,0,0,0,0,0,0,0,0,0,0],"id":61,"left_children":[1,3,5,7,9,11,13,-1,-1,-1,-1,-1,-1,-1,-1],"loss_changes":[7.793646E1,1.10763336E2,2.0126486E2,1.3545526E2,7.84377E1,9.776887E1,6.0407745E1,0E0,0E0,0E0,0E0,0E0,0E0,0E0,0E0],"parents":[2147483647,0,0,1,1,2,2,3,3,4,4,5,5,6,6],"right_children":[2,4,6,8,10,12,14,-1,-1,-1,-1,-1,-1,-1,-1],"split_conditions":[2.004E3,3E0,1.2E1,2.002E3,3E1,6.123234E-17,1.9E1,2.6105106E-2,5.7871355E-4,7.075001E-3,-3.0911306E-3,5.1419497E-3,-1.3299656E-2,-2.865104E-2,-7.74336E-2],"split_indices":[14,15,15,14,9,22,16,0,0,0,0,0,0,0,0],"split_type":[0,0,0,0,0,0,0,0,0,0,0,0,0,0,0],"sum_hessian":[3.2128652E4,2.5385994E4,6.7426587E3,4.466073E3,2.091992E4,6.1822803E3,5.6037836E2,2.0397206E3,2.4263525E3,5.483352E3,1.5436568E4,3.377024E3,2.8052566E3,3.290417E2,2.3133667E2],"tree_param":{"num_deleted":"0","num_feature":"27","num_nodes":"15","size_leaf_vector":"1"}},{"base_weights":[2.9254277E-4,-9.636428E-2,2.2046871E-2,4.6036694E-2,-2.2658858E-1,8.878812E-3,5.940251E-1,6.7431447E-3,-4.3552753E-2,-4.6024006E-2,-1.3781093E-2,-1.0435045E-3,1.1144469E-2,4.08084E-3,5.2459177E-2],"categories":[],"categories_nodes":[],"categories_segments":[],"categories_sizes":[],"default_left":[0,0,0,0,0,0,0,0,0,0,0,0,0,0,0],"id":62,"left_children":[1,3,5,7,9,11,13,-1,-1,-1,-1,-1,-1,-1,-1],"loss_changes":[6.752517E1,1.0941755E2,1.9743166E2,8.3928406E1,4.6983536E1,8.53434E1,3.9447525E1,0E0,0E0,0E0,0E0,0E0,0E0,0E0,0E0],"parents":[2147483647,0,0,1,1,2,2,3,3,4,4,5,5,6,6],"right_children":[2,4,6,8,10,12,14,-1,-1,-1,-1,-1,-1,-1,-1],"split_conditions":[4.174673E1,4.1706062E1,1.193461E6,1.194819E6,1.166358E6,6.6E1,4.1751118E1,6.7431447E-3,-4.3552753E-2,-4.6024006E-2,-1.3781093E-2,-1.0435045E-3,1.1144469E-2,4.08084E-3,5.2459177E-2],"split_indices":[12,12,10,10,10,9,12,0,0,0,0,0,0,0,0],"split_type":[0,0,0,0,0,0,0,0,0,0,0,0,0,0,0],"sum_hessian":[3.2111477E4,5.898844E3,2.621263E4,2.8179966E3,3.080848E3,2.5623738E4,5.888931E2,2.629334E3,1.8866255E2,2.6281033E2,2.8180376E3,2.2067627E4,3.556112E3,1.1083876E2,4.7805438E2],"tree_param":{"num_deleted":"0","num_feature":"27","num_nodes":"15","size_leaf_vector":"1"}},{"base_weights":[1.706634E-3,-1.6904047E-1,1.5249066E-2,-1.940048E-1,1.0532433E0,2.1960123E-2,-3.8178444E-1,-1.7403603E-2,2.9658578E-2,-5.082139E-2,8.50111E-2,-6.51452E-3,3.5493227E-3,-3.0976841E-2,3.2205835E-2],"categories":[],"categories_nodes":[],"categories_segments":[],"categories_sizes":[],"default_left":[0,1,1,1,0,0,0,0,0,0,0,0,0,0,0],"id":63,"left_children":[1,3,5,7,9,11,13,-1,-1,-1,-1,-1,-1,-1,-1],"loss_changes":[7.426693E1,7.2221146E1,7.9297676E1,6.1661476E1,1.0009972E1,8.6698265E1,1.7460823E1,0E0,0E0,0E0,0E0,0E0,0E0,0E0,0E0],"parents":[2147483647,0,0,1,1,2,2,3,3,4,4,5,5,6,6],"right_children":[2,4,6,8,10,12,14,-1,-1,-1,-1,-1,-1,-1,-1],"split_conditions":[4.4836897E-1,-4.5672836E1,1.2970091E2,1.29804E2,1.167163E6,4.1745026E1,1.76E2,-1.7403603E-2,2.9658578E-2,-5.082139E-2,8.50111E-2,-6.51452E-3,3.5493227E-3,-3.0976841E-2,3.2205835E-2],"split_indices":[25,23,24,24,10,12,1,0,0,0,0,0,0,0,0],"split_type":[0,0,0,0,0,0,0,0,0,0,0,0,0,0,0],"sum_hessian":[3.2115662E4,2.3591611E3,2.97565E4,2.3127656E3,4.6395435E1,2.9262816E4,4.936846E2,2.154238E3,1.5852754E2,2.4531233E0,4.3942314E1,5.657339E3,2.3605479E4,4.6993274E2,2.3751844E1],"tree_param":{"num_deleted":"0","num_feature":"27","num_nodes":"15","size_leaf_vector":"1"}},{"base_weights":[-1.0014592E-3,-1.6611637E-1,1.213323E-2,-2.0642784E-1,3.9317685E-1,1.8423904E-2,-3.6289075E-1,5.776869E-3,-1.799864E-2,6.416188E-2,-2.1723194E-2,-6.368698E-3,3.2011347E-3,-2.8961442E-2,1.3959048E-2],"categories":[],"categories_nodes":[],"categories_segments":[],"categories_sizes":[],"default_left":[0,1,1,0,0,0,0,0,0,0,0,0,0,0,0],"id":64,"left_children":[1,3,5,7,9,11,13,-1,-1,-1,-1,-1,-1,-1,-1],"loss_changes":[6.952705E1,5.3341873E1,7.006547E1,2.5232208E1,5.3632935E1,7.842292E1,9.23246E0,0E0,0E0,0E0,0E0,0E0,0E0,0E0,0E0],"parents":[2147483647,0,0,1,1,2,2,3,3,4,4,5,5,6,6],"right_children":[2,4,6,8,10,12,14,-1,-1,-1,-1,-1,-1,-1,-1],"split_conditions":[4.4836897E-1,1.29804E2,1.2970091E2,4.180088E1,5.6717E4,4.1745026E1,1.92E2,5.776869E-3,-1.799864E-2,6.416188E-2,-2.1723194E-2,-6.368698E-3,3.2011347E-3,-2.8961442E-2,1.3959048E-2],"split_indices":[25,24,24,12,11,12,4,0,0,0,0,0,0,0,0],"split_type":[0,0,0,0,0,0,0,0,0,0,0,0,0,0,0],"sum_hessian":[3.2056898E4,2.3613206E3,2.9695578E4,2.2031572E3,1.5816327E2,2.9206615E4,4.889626E2,2.709422E2,1.9322151E3,9.271626E1,6.5447014E1,5.6633696E3,2.3543246E4,4.611713E2,2.7791288E1],"tree_param":{"num_deleted":"0","num_feature":"27","num_nodes":"15","size_leaf_vector":"1"}},{"base_weights":[4.3121446E-4,7.3679976E-2,-2.6600787E-2,1.3854991E-1,2.5918785E-2,6.9162175E-2,-5.7665505E-2,-5.721024E-5,1.8736131E-2,-2.097747E-2,7.196656E-3,9.25042E-3,-1.4582017E-2,-7.808865E-3,3.1605887E-3],"categories":[],"categories_nodes":[],"categories_segments":[],"categories_sizes":[],"default_left":[0,0,0,0,0,0,0,0,0,0,0,0,0,0,0],"id":65,"left_children":[1,3,5,7,9,11,13,-1,-1,-1,-1,-1,-1,-1,-1],"loss_changes":[6.3397907E1,2.6737274E1,6.957756E1,6.0189827E1,1.1314738E2,8.86215E1,8.784776E1,0E0,0E0,0E0,0E0,0E0,0E0,0E0,0E0],"parents":[2147483647,0,0,1,1,2,2,3,3,4,4,5,5,6,6],"right_children":[2,4,6,8,10,12,14,-1,-1,-1,-1,-1,-1,-1,-1],"split_conditions":[-5E-1,2.3711E4,3E0,1.2507E4,3.1846E4,4.5E1,4.2E1,-5.721024E-5,1.8736131E-2,-2.097747E-2,7.196656E-3,9.25042E-3,-1.4582017E-2,-7.808865E-3,3.1605887E-3],"split_indices":[22,11,15,11,11,9,9,0,0,0,0,0,0,0,0],"split_type":[0,0,0,0,0,0,0,0,0,0,0,0,0,0,0],"sum_hessian":[3.2016176E4,8.629917E3,2.3386258E4,3.658707E3,4.97121E3,5.7278457E3,1.7658412E4,1.6784412E3,1.980266E3,9.353226E2,4.0358875E3,4.718821E3,1.0090249E3,1.1866216E4,5.7921963E3],"tree_param":{"num_deleted":"0","num_feature":"27","num_nodes":"15","size_leaf_vector":"1"}},{"base_weights":[5.041721E-4,-1.4228781E-2,1.2780212E-1,-3.0166574E-2,1.10069685E-1,7.2505766E-1,1.19138524E-1,-3.5032725E-3,4.991649E-3,-1.4104002E-2,1.0835957E-2,-6.145636E-2,5.9896432E-2,1.6769214E-2,4.689468E-3],"categories":[],"categories_nodes":[],"categories_segments":[],"categories_sizes":[],"default_left":[0,0,0,0,0,0,0,0,0,0,0,0,0,0,0],"id":66,"left_children":[1,3,5,7,9,11,13,-1,-1,-1,-1,-1,-1,-1,-1],"loss_changes":[6.0105457E1,5.6906387E1,1.7115173E1,4.4679516E1,3.7968605E1,7.7513447E0,1.9879757E1,0E0,0E0,0E0,0E0,0E0,0E0,0E0,0E0],"parents":[2147483647,0,0,1,1,2,2,3,3,4,4,5,5,6,6],"right_children":[2,4,6,8,10,12,14,-1,-1,-1,-1,-1,-1,-1,-1],"split_conditions":[1.71E2,8.013577E-1,4.1658154E1,6.6E1,4.1763626E1,1.180089E6,1.15572E6,-3.5032725E-3,4.991649E-3,-1.4104002E-2,1.0835957E-2,-6.145636E-2,5.9896432E-2,1.6769214E-2,4.689468E-3],"split_indices":[1,25,12,9,12,10,10,0,0,0,0,0,0,0,0],"split_type":[0,0,0,0,0,0,0,0,0,0,0,0,0,0,0],"sum_hessian":[3.204616E4,2.8722787E4,3.3233718E3,2.5459127E4,3.2636616E3,4.6336117E1,3.277036E3,2.1561998E4,3.8971272E3,3.657759E2,2.8978857E3,2.2054923E0,4.4130627E1,1.0868129E3,2.190223E3],"tree_param":{"num_deleted":"0","num_feature":"27","num_nodes":"15","size_leaf_vector":"1"}},{"base_weights":[-1.8899223E-3,-7.546816E-3,3.2851496E-1,1.313812E-2,-1.6151726E-1,9.602344E-1,2.5417903E-1,-9.048036E-3,2.6557567E-3,-3.1464063E-2,-5.125227E-3,9.521842E-2,5.7701044E-2,-6.012684E-2,2.2411417E-2],"categories":[],"categories_nodes":[],"categories_segments":[],"categories_sizes":[],"default_left":[1,1,0,0,0,0,0,0,0,0,0,0,0,0,0],"id":67,"left_children":[1,3,5,7,9,11,13,-1,-1,-1,-1,-1,-1,-1,-1],"loss_changes":[5.986355E1,1.002909E2,2.5073383E1,8.839221E1,9.171999E1,2.2662735E0,2.7744947E1,0E0,0E0,0E0,0E0,0E0,0E0,0E0,0E0],"parents":[2147483647,0,0,1,1,2,2,3,3,4,4,5,5,6,6],"right_children":[2,4,6,8,10,12,14,-1,-1,-1,-1,-1,-1,-1,-1],"split_conditions":[-4.5667213E1,-4.577511E1,1.2965306E2,4.7234115E-1,1.7E1,1.167794E6,1.2966333E2,-9.048036E-3,2.6557567E-3,-3.1464063E-2,-5.125227E-3,9.521842E-2,5.7701044E-2,-6.012684E-2,2.2411417E-2],"split_indices":[23,23,24,25,7,10,24,0,0,0,0,0,0,0,0],"split_type":[0,0,0,0,0,0,0,0,0,0,0,0,0,0,0],"sum_hessian":[3.2026273E4,3.1488139E4,5.381343E2,2.7759715E4,3.7284238E3,5.5401913E1,4.827324E2,4.0230012E3,2.3736715E4,9.430736E2,2.7853503E3,1.612724E1,3.9274673E1,2.1841969E1,4.608904E2],"tree_param":{"num_deleted":"0","num_feature":"27","num_nodes":"15","size_leaf_vector":"1"}},{"base_weights":[-9.3877973E-4,-2.4869618E-1,6.648068E-3,-1.3852923E-1,-3.8390055E-1,2.3001965E-2,-9.607395E-2,-4.165659E-2,-3.006649E-3,-3.27955E-2,1.1995841E-2,-8.9846394E-4,5.9228353E-3,-1.615774E-2,1.19462395E-2],"categories":[],"categories_nodes":[],"categories_segments":[],"categories_sizes":[],"default_left":[0,0,1,0,0,0,0,0,0,0,0,0,0,0,0],"id":68,"left_children":[1,3,5,7,9,11,13,-1,-1,-1,-1,-1,-1,-1,-1],"loss_changes":[6.012845E1,1.410376E1,5.2143177E1,2.2065468E1,1.5311901E1,5.4936054E1,1.3863403E2,0E0,0E0,0E0,0E0,0E0,0E0,0E0,0E0],"parents":[2147483647,0,0,1,1,2,2,3,3,4,4,5,5,6,6],"right_children":[2,4,6,8,10,12,14,-1,-1,-1,-1,-1,-1,-1,-1],"split_conditions":[-4.5963585E1,1.2937132E2,-4.577511E1,1.223E3,1.81E2,3.2991E4,-4.570068E1,-4.165659E-2,-3.006649E-3,-3.27955E-2,1.1995841E-2,-8.9846394E-4,5.9228353E-3,-1.615774E-2,1.19462395E-2],"split_indices":[23,24,23,11,4,11,23,0,0,0,0,0,0,0,0],"split_type":[0,0,0,0,0,0,0,0,0,0,0,0,0,0,0],"sum_hessian":[3.1986484E4,9.494456E2,3.103704E4,5.242786E2,4.2516702E2,2.6775078E4,4.26196E3,9.553582E1,4.287428E2,3.8011816E2,4.5048836E1,1.6656053E4,1.0119025E4,2.875621E3,1.386339E3],"tree_param":{"num_deleted":"0","num_feature":"27","num_nodes":"15","size_leaf_vector":"1"}},{"base_weights":[-6.948351E-4,2.5285674E-2,-9.2221E-2,1.6163932E-2,2.5961295E-1,-7.810711E-2,-3.8297576E-1,1.9071859E-3,-2.7043689E-2,2.1443719E-2,-4.9467147E-3,-3.993763E-3,-1.724515E-2,-2.9378135E-2,7.12457E-2],"categories":[],"categories_nodes":[],"categories_segments":[],"categories_sizes":[],"default_left":[0,0,0,0,0,0,0,0,0,0,0,0,0,0,0],"id":69,"left_children":[1,3,5,7,9,11,13,-1,-1,-1,-1,-1,-1,-1,-1],"loss_changes":[7.604476E1,5.3238518E1,2.8985912E1,9.226479E1,1.042371E1,2.494719E1,8.992355E0,0E0,0E0,0E0,0E0,0E0,0E0,0E0,0E0],"parents":[2147483647,0,0,1,1,2,2,3,3,4,4,5,5,6,6],"right_children":[2,4,6,8,10,12,14,-1,-1,-1,-1,-1,-1,-1,-1],"split_conditions":[7.4E1,-4.5672836E1,9E1,5.6717E4,1.76E2,-4.5776653E1,2.534E3,1.9071859E-3,-2.7043689E-2,2.1443719E-2,-4.9467147E-3,-3.993763E-3,-1.724515E-2,-2.9378135E-2,7.12457E-2],"split_indices":[2,23,2,11,4,23,6,0,0,0,0,0,0,0,0],"split_type":[0,0,0,0,0,0,0,0,0,0,0,0,0,0,0],"sum_hessian":[3.1977867E4,2.4908184E4,7.069684E3,2.3975932E4,9.322509E2,6.743603E3,3.2608096E2,2.3374861E4,6.010702E2,8.445019E2,8.774898E1,5.874736E3,8.68867E2,3.2219577E2,3.885188E0],"tree_param":{"num_deleted":"0","num_feature":"27","num_nodes":"15","size_leaf_vector":"1"}},{"base_weights":[-2.3227553E-3,2.1185549E-2,-8.641631E-2,9.013079E-2,-3.0596151E-3,-7.561077E-2,-4.2923066E-1,8.690861E-3,-1.8454554E-3,-7.0578153E-3,1.3324445E-3,-2.9696906E-2,-4.697317E-3,-3.5124246E-2,2.4080507E-2],"categories":[],"categories_nodes":[],"categories_segments":[],"categories_sizes":[],"default_left":[0,0,1,0,0,0,0,0,0,0,0,0,0,0,0],"id":70,"left_children":[1,3,5,7,9,11,13,-1,-1,-1,-1,-1,-1,-1,-1],"loss_changes":[6.3213E1,4.1773315E1,2.584544E1,2.167865E1,3.6874393E1,2.5275284E1,8.541225E0,0E0,0E0,0E0,0E0,0E0,0E0,0E0,0E0],"parents":[2147483647,0,0,1,1,2,2,3,3,4,4,5,5,6,6],"right_children":[2,4,6,8,10,12,14,-1,-1,-1,-1,-1,-1,-1,-1],"split_conditions":[7.6E1,-5E-1,1.2970091E2,4.6875E4,4.174673E1,8.3E1,1.29804E2,8.690861E-3,-1.8454554E-3,-7.0578153E-3,1.3324445E-3,-2.9696906E-2,-4.697317E-3,-3.5124246E-2,2.4080507E-2],"split_indices":[2,22,24,11,12,2,24,0,0,0,0,0,0,0,0],"split_type":[0,0,0,0,0,0,0,0,0,0,0,0,0,0,0],"sum_hessian":[3.1973943E4,2.4989023E4,6.984919E3,6.500638E3,1.8488387E4,6.7726646E3,2.1225444E2,5.1991245E3,1.3015137E3,3.4277627E3,1.5060623E4,2.2202603E2,6.5506387E3,1.9903983E2,1.3214611E1],"tree_param":{"num_deleted":"0","num_feature":"27","num_nodes":"15","size_leaf_vector":"1"}},{"base_weights":[1.2519637E-3,2.4430469E-2,-8.587004E-2,1.583587E-1,-4.008814E-3,-3.72306E-2,-6.288766E-1,2.4464715E-2,8.574846E-4,-3.3633593E-3,7.5608366E-3,-1.795598E-2,2.1781148E-3,-2.6754621E-2,-7.3660314E-2],"categories":[],"categories_nodes":[],"categories_segments":[],"categories_sizes":[],"default_left":[0,0,0,0,0,0,0,0,0,0,0,0,0,0,0],"id":71,"left_children":[1,3,5,7,9,11,13,-1,-1,-1,-1,-1,-1,-1,-1],"loss_changes":[6.452349E1,9.612754E1,1.7731645E2,1.1450649E2,9.416189E1,8.625681E1,5.4664932E1,0E0,0E0,0E0,0E0,0E0,0E0,0E0,0E0],"parents":[2147483647,0,0,1,1,2,2,3,3,4,4,5,5,6,6],"right_children":[2,4,6,8,10,12,14,-1,-1,-1,-1,-1,-1,-1,-1],"split_conditions":[2.004E3,3E0,1.2E1,2.002E3,2.4E1,4E0,1.9E1,2.4464715E-2,8.574846E-4,-3.3633593E-3,7.5608366E-3,-1.795598E-2,2.1781148E-3,-2.6754621E-2,-7.3660314E-2],"split_indices":[14,15,15,14,8,15,16,0,0,0,0,0,0,0,0],"split_type":[0,0,0,0,0,0,0,0,0,0,0,0,0,0,0],"sum_hessian":[3.1950443E4,2.5236959E4,6.713485E3,4.4195483E3,2.081741E4,6.1625474E3,5.509373E2,2.0036936E3,2.4158547E3,1.4966348E4,5.851062E3,1.498113E3,4.6644346E3,3.269794E2,2.2395795E2],"tree_param":{"num_deleted":"0","num_feature":"27","num_nodes":"15","size_leaf_vector":"1"}},{"base_weights":[-2.917074E-4,7.121064E-2,-2.8307915E-2,7.649495E-2,-1.392516E0,3.2279514E-2,-7.551382E-2,-2.6904339E-2,6.6448585E-3,-1.6640976E-1,-4.135277E-2,-6.829599E-3,9.067544E-3,-1.7045021E-2,6.237055E-4],"categories":[],"categories_nodes":[],"categories_segments":[],"categories_sizes":[],"default_left":[0,0,1,1,0,0,0,0,0,0,0,0,0,0,0],"id":72,"left_children":[1,3,5,7,9,11,13,-1,-1,-1,-1,-1,-1,-1,-1],"loss_changes":[6.3957943E1,6.962787E1,6.561087E1,5.7839756E1,2.242649E1,1.16166595E2,1.7114856E2,0E0,0E0,0E0,0E0,0E0,0E0,0E0,0E0],"parents":[2147483647,0,0,1,1,2,2,3,3,4,4,5,5,6,6],"right_children":[2,4,6,8,10,12,14,-1,-1,-1,-1,-1,-1,-1,-1],"split_conditions":[2.002E3,2.3E1,4.17862E1,-4.5963585E1,-4.5797367E1,4.174673E1,2.3E1,-2.6904339E-2,6.6448585E-3,-1.6640976E-1,-4.135277E-2,-6.829599E-3,9.067544E-3,-1.7045021E-2,6.237055E-4],"split_indices":[14,8,12,23,23,12,8,0,0,0,0,0,0,0,0],"split_type":[0,0,0,0,0,0,0,0,0,0,0,0,0,0,0],"sum_hessian":[3.1925488E4,8.987147E3,2.293834E4,8.955764E3,3.1384117E1,1.0045519E4,1.2892821E4,2.8196686E2,8.673797E3,1.4291917E1,1.7092201E1,4.2403926E3,5.8051265E3,4.4780884E3,8.414732E3],"tree_param":{"num_deleted":"0","num_feature":"27","num_nodes":"15","size_leaf_vector":"1"}},{"base_weights":[-4.9829856E-4,-3.8560674E-2,3.6666185E-2,-5.5584792E-2,1.8066671E-1,4.283664E-2,-5.604665E-1,-5.6029656E-3,7.4319965E-3,2.3794096E-2,6.844122E-3,1.0970304E-3,1.6591957E-2,-2.7352946E-3,-5.402806E-2],"categories":[],"categories_nodes":[],"categories_segments":[],"categories_sizes":[],"default_left":[0,0,0,0,0,0,0,0,0,0,0,0,0,0,0],"id":73,"left_children":[1,3,5,7,9,11,13,-1,-1,-1,-1,-1,-1,-1,-1],"loss_changes":[4.510195E1,5.8797646E1,5.9464497E1,4.8650505E1,1.4299507E1,8.188701E1,1.5463345E1,0E0,0E0,0E0,0E0,0E0,0E0,0E0,0E0],"parents":[2147483647,0,0,1,1,2,2,3,3,4,4,5,5,6,6],"right_children":[2,4,6,8,10,12,14,-1,-1,-1,-1,-1,-1,-1,-1],"split_conditions":[6.33592E-1,2.525E3,2.131E3,6.6E1,-8.7756E1,-8.760512E1,-8.7603455E1,-5.6029656E-3,7.4319965E-3,2.3794096E-2,6.844122E-3,1.0970304E-3,1.6591957E-2,-2.7352946E-3,-5.402806E-2],"split_indices":[25,6,6,9,13,13,13,0,0,0,0,0,0,0,0],"split_type":[0,0,0,0,0,0,0,0,0,0,0,0,0,0,0],"sum_hessian":[3.1881893E4,1.575066E4,1.6131232E4,1.4616371E4,1.134289E3,1.5967165E4,1.6406798E2,1.2885349E4,1.7310227E3,4.23794E2,7.104949E2,1.3875288E4,2.0918772E3,4.2219296E1,1.2184868E2],"tree_param":{"num_deleted":"0","num_feature":"27","num_nodes":"15","size_leaf_vector":"1"}},{"base_weights":[-1.6004858E-3,1.955929E-2,-8.148088E-2,1.436538E-1,-6.574811E-3,-1.2932705E-2,-4.1012213E-1,2.2078106E-2,9.6862146E-4,-3.3056817E-3,6.7445408E-3,-1.6557587E-2,4.8072888E-3,-1.8719938E-2,-4.2448275E-2],"categories":[],"categories_nodes":[],"categories_segments":[],"categories_sizes":[],"default_left":[0,0,0,0,0,0,0,0,0,0,0,0,0,0,0],"id":74,"left_children":[1,3,5,7,9,11,13,-1,-1,-1,-1,-1,-1,-1,-1],"loss_changes":[5.392575E1,8.180074E1,1.5050961E2,9.079307E1,7.977562E1,9.313915E1,3.0202469E1,0E0,0E0,0E0,0E0,0E0,0E0,0E0,0E0],"parents":[2147483647,0,0,1,1,2,2,3,3,4,4,5,5,6,6],"right_children":[2,4,6,8,10,12,14,-1,-1,-1,-1,-1,-1,-1,-1],"split_conditions":[2.004E3,3E0,1.1E1,2.002E3,2.4E1,4E0,1.2E1,2.2078106E-2,9.6862146E-4,-3.3056817E-3,6.7445408E-3,-1.6557587E-2,4.8072888E-3,-1.8719938E-2,-4.2448275E-2],"split_indices":[14,15,15,14,8,15,15,0,0,0,0,0,0,0,0],"split_type":[0,0,0,0,0,0,0,0,0,0,0,0,0,0,0],"sum_hessian":[3.1902041E4,2.522173E4,6.68031E3,4.3868457E3,2.0834885E4,5.5282617E3,1.1520487E3,1.9780111E3,2.4088345E3,1.4977618E4,5.8572676E3,1.4877582E3,4.0405034E3,6.082578E2,5.4379083E2],"tree_param":{"num_deleted":"0","num_feature":"27","num_nodes":"15","size_leaf_vector":"1"}},{"base_weights":[-1.8847888E-4,-3.1314978E-1,5.3172773E-3,3.381052E-1,-4.3427497E-1,-7.7262637E-3,1.1888941E-1,-1.4376096E-2,4.050965E-2,-5.6499716E-2,-2.591564E-2,-3.6549746E-4,-4.106133E-2,1.0583881E-2,-2.5854362E-3],"categories":[],"categories_nodes":[],"categories_segments":[],"categories_sizes":[],"default_left":[0,0,0,0,0,0,1,0,0,0,0,0,0,0,0],"id":75,"left_children":[1,3,5,7,9,11,13,-1,-1,-1,-1,-1,-1,-1,-1],"loss_changes":[5.495791E1,4.3643963E1,4.6432823E1,1.0197659E1,1.2263916E1,4.242326E1,1.2986084E1,0E0,0E0,0E0,0E0,0E0,0E0,0E0,0E0],"parents":[2147483647,0,0,1,1,2,2,3,3,4,4,5,5,6,6],"right_children":[2,4,6,8,10,12,14,-1,-1,-1,-1,-1,-1,-1,-1],"split_conditions":[-4.597445E1,1.4E1,1.71E2,1.2948233E2,1.2934453E2,5E1,-4.578523E1,-1.4376096E-2,4.050965E-2,-5.6499716E-2,-2.591564E-2,-3.6549746E-4,-4.106133E-2,1.0583881E-2,-2.5854362E-3],"split_indices":[23,8,1,24,24,8,23,0,0,0,0,0,0,0,0],"split_type":[0,0,0,0,0,0,0,0,0,0,0,0,0,0,0],"sum_hessian":[3.1893033E4,5.504106E2,3.1342623E4,8.603484E1,4.643757E2,2.8114643E4,3.2279807E3,2.4826242E1,6.12086E1,8.6335785E1,3.7803992E2,2.797839E4,1.3625215E2,2.7616982E3,4.662826E2],"tree_param":{"num_deleted":"0","num_feature":"27","num_nodes":"15","size_leaf_vector":"1"}},{"base_weights":[1.0383425E-3,2.1576054E-2,-7.630103E-2,1.3536753E-1,-2.2738085E-3,-3.4837175E-2,-5.506457E-1,2.1049725E-2,8.223969E-4,-1.9265166E-2,4.7628896E-4,1.0001255E-3,-2.4239903E-2,-3.4719333E-2,-5.4582275E-2],"categories":[],"categories_nodes":[],"categories_segments":[],"categories_sizes":[],"default_left":[0,0,0,0,1,0,0,0,0,0,0,0,0,0,0],"id":76,"left_children":[1,3,5,7,9,11,13,-1,-1,-1,-1,-1,-1,-1,-1],"loss_changes":[5.062347E1,6.834641E1,1.3151366E2,8.280337E1,4.7906395E1,8.870611E1,7.59848E0,0E0,0E0,0E0,0E0,0E0,0E0,0E0,0E0],"parents":[2147483647,0,0,1,1,2,2,3,3,4,4,5,5,6,6],"right_children":[2,4,6,8,10,12,14,-1,-1,-1,-1,-1,-1,-1,-1],"split_conditions":[2.004E3,3E0,1.2E1,2.002E3,-4.5969807E1,8.660254E-1,3.8329E4,2.1049725E-2,8.223969E-4,-1.9265166E-2,4.7628896E-4,1.0001255E-3,-2.4239903E-2,-3.4719333E-2,-5.4582275E-2],"split_indices":[14,15,15,14,23,21,11,0,0,0,0,0,0,0,0],"split_type":[0,0,0,0,0,0,0,0,0,0,0,0,0,0,0],"sum_hessian":[3.1869223E4,2.5182621E4,6.686602E3,4.362719E3,2.0819902E4,6.150079E3,5.3652295E2,1.953983E3,2.408736E3,6.764693E2,2.0143432E4,5.2873667E3,8.627125E2,3.9072787E2,1.4579507E2],"tree_param":{"num_deleted":"0","num_feature":"27","num_nodes":"15","size_leaf_vector":"1"}},{"base_weights":[6.6256366E-4,6.5520704E-2,-2.330018E-2,-1.770196E-1,8.178279E-2,7.121384E-2,-6.177306E-2,-2.8905436E-2,1.4122463E-3,-1.2487039E-2,7.254904E-3,1.5705422E-2,-6.1676884E-3,-1.0421502E-3,-1.3026552E-2],"categories":[],"categories_nodes":[],"categories_segments":[],"categories_sizes":[],"default_left":[0,0,0,0,0,0,0,0,0,0,0,0,0,0,0],"id":77,"left_children":[1,3,5,7,9,11,13,-1,-1,-1,-1,-1,-1,-1,-1],"loss_changes":[4.952082E1,3.391982E1,8.460774E1,2.3231735E1,3.580459E1,1.5078601E2,9.160364E1,0E0,0E0,0E0,0E0,0E0,0E0,0E0,0E0],"parents":[2147483647,0,0,1,1,2,2,3,3,4,4,5,5,6,6],"right_children":[2,4,6,8,10,12,14,-1,-1,-1,-1,-1,-1,-1,-1],"split_conditions":[-5E-1,4.3950438E-1,2.002E3,1.613E3,-4.5947617E1,5E0,8.660254E-1,-2.8905436E-2,1.4122463E-3,-1.2487039E-2,7.254904E-3,1.5705422E-2,-6.1676884E-3,-1.0421502E-3,-1.3026552E-2],"split_indices":[22,25,14,6,23,15,21,0,0,0,0,0,0,0,0],"split_type":[0,0,0,0,0,0,0,0,0,0,